tree
version=v3
num_class=1
num_tree_per_iteration=1
label_index=0
max_feature_idx=2545
objective=binary sigmoid:1
feature_names=f1_days_since_last_fight f1_fights_last_365d f1_fights_last_730d f1_avg_days_between_fights_365d f1_sig_strikes_succ_m3 f1_sig_strikes_att_m3 f1_total_strikes_succ_m3 f1_total_strikes_att_m3 f1_takedown_succ_m3 f1_takedown_att_m3 f1_submission_att_m3 f1_reversals_m3 f1_ctrl_time_sec_m3 f1_sig_acc_m3 f1_td_acc_m3 f1_days_since_last_fight_m3 f1_fight_number_m3 f1_fights_last_365d_m3 f1_fights_last_730d_m3 f1_avg_days_between_fights_365d_m3 f1_sig_strikes_succ_s3 f1_sig_strikes_att_s3 f1_total_strikes_succ_s3 f1_total_strikes_att_s3 f1_takedown_succ_s3 f1_takedown_att_s3 f1_reversals_s3 f1_ctrl_time_sec_s3 f1_sig_strikes_succ_m5 f1_sig_strikes_att_m5 f1_total_strikes_succ_m5 f1_total_strikes_att_m5 f1_takedown_succ_m5 f1_takedown_att_m5 f1_submission_att_m5 f1_reversals_m5 f1_ctrl_time_sec_m5 f1_sig_acc_m5 f1_td_acc_m5 f1_days_since_last_fight_m5 f1_fights_last_365d_m5 f1_fights_last_730d_m5 f1_avg_days_between_fights_365d_m5 f1_sig_strikes_succ_s5 f1_sig_strikes_att_s5 f1_total_strikes_succ_s5 f1_total_strikes_att_s5 f1_takedown_succ_s5 f1_takedown_att_s5 f1_submission_att_s5 f1_reversals_s5 f1_ctrl_time_sec_s5 f1_sig_strikes_succ_m10 f1_sig_strikes_att_m10 f1_total_strikes_succ_m10 f1_total_strikes_att_m10 f1_takedown_succ_m10 f1_takedown_att_m10 f1_submission_att_m10 f1_reversals_m10 f1_ctrl_time_sec_m10 f1_sig_acc_m10 f1_td_acc_m10 f1_days_since_last_fight_m10 f1_fights_last_365d_m10 f1_fights_last_730d_m10 f1_avg_days_between_fights_365d_m10 f1_sig_strikes_succ_s10 f1_sig_strikes_att_s10 f1_total_strikes_succ_s10 f1_total_strikes_att_s10 f1_takedown_succ_s10 f1_takedown_att_s10 f1_submission_att_s10 f1_reversals_s10 f1_ctrl_time_sec_s10 f1_sig_strikes_succ_m15 f1_sig_strikes_att_m15 f1_total_strikes_succ_m15 f1_total_strikes_att_m15 f1_takedown_succ_m15 f1_takedown_att_m15 f1_submission_att_m15 f1_reversals_m15 f1_ctrl_time_sec_m15 f1_sig_acc_m15 f1_td_acc_m15 f1_days_since_last_fight_m15 f1_fights_last_365d_m15 f1_fights_last_730d_m15 f1_sig_strikes_succ_s15 f1_sig_strikes_att_s15 f1_total_strikes_succ_s15 f1_total_strikes_att_s15 f1_takedown_succ_s15 f1_takedown_att_s15 f1_submission_att_s15 f1_reversals_s15 f1_ctrl_time_sec_s15 f1_sig_strikes_succ_m20 f1_sig_strikes_att_m20 f1_total_strikes_succ_m20 f1_total_strikes_att_m20 f1_takedown_succ_m20 f1_takedown_att_m20 f1_submission_att_m20 f1_reversals_m20 f1_ctrl_time_sec_m20 f1_sig_acc_m20 f1_td_acc_m20 f1_days_since_last_fight_m20 f1_fights_last_365d_m20 f1_fights_last_730d_m20 f1_sig_strikes_att_s20 f1_total_strikes_succ_s20 f1_total_strikes_att_s20 f1_takedown_succ_s20 f1_takedown_att_s20 f1_submission_att_s20 f1_reversals_s20 f1_ctrl_time_sec_s20 f2_days_since_last_fight f2_fight_number f2_fights_last_365d f2_fights_last_730d f2_avg_days_between_fights_365d f2_sig_strikes_succ_m3 f2_sig_strikes_att_m3 f2_total_strikes_succ_m3 f2_total_strikes_att_m3 f2_takedown_succ_m3 f2_takedown_att_m3 f2_submission_att_m3 f2_reversals_m3 f2_ctrl_time_sec_m3 f2_sig_acc_m3 f2_td_acc_m3 f2_days_since_last_fight_m3 f2_fights_last_365d_m3 f2_fights_last_730d_m3 f2_avg_days_between_fights_365d_m3 f2_sig_strikes_succ_s3 f2_sig_strikes_att_s3 f2_total_strikes_succ_s3 f2_total_strikes_att_s3 f2_takedown_succ_s3 f2_takedown_att_s3 f2_ctrl_time_sec_s3 f2_sig_strikes_succ_m5 f2_sig_strikes_att_m5 f2_total_strikes_succ_m5 f2_total_strikes_att_m5 f2_takedown_succ_m5 f2_takedown_att_m5 f2_submission_att_m5 f2_reversals_m5 f2_ctrl_time_sec_m5 f2_sig_acc_m5 f2_td_acc_m5 f2_days_since_last_fight_m5 f2_fights_last_365d_m5 f2_fights_last_730d_m5 f2_avg_days_between_fights_365d_m5 f2_sig_strikes_succ_s5 f2_sig_strikes_att_s5 f2_total_strikes_succ_s5 f2_total_strikes_att_s5 f2_takedown_succ_s5 f2_takedown_att_s5 f2_submission_att_s5 f2_ctrl_time_sec_s5 f2_sig_strikes_succ_m10 f2_sig_strikes_att_m10 f2_total_strikes_succ_m10 f2_total_strikes_att_m10 f2_takedown_succ_m10 f2_takedown_att_m10 f2_submission_att_m10 f2_reversals_m10 f2_ctrl_time_sec_m10 f2_sig_acc_m10 f2_td_acc_m10 f2_days_since_last_fight_m10 f2_fights_last_365d_m10 f2_fights_last_730d_m10 f2_avg_days_between_fights_365d_m10 f2_sig_strikes_succ_s10 f2_sig_strikes_att_s10 f2_total_strikes_succ_s10 f2_total_strikes_att_s10 f2_takedown_att_s10 f2_submission_att_s10 f2_ctrl_time_sec_s10 f2_sig_strikes_succ_m15 f2_sig_strikes_att_m15 f2_total_strikes_succ_m15 f2_total_strikes_att_m15 f2_takedown_succ_m15 f2_takedown_att_m15 f2_submission_att_m15 f2_reversals_m15 f2_ctrl_time_sec_m15 f2_sig_acc_m15 f2_td_acc_m15 f2_fights_last_365d_m15 f2_fights_last_730d_m15 f2_avg_days_between_fights_365d_m15 f2_sig_strikes_succ_s15 f2_sig_strikes_att_s15 f2_total_strikes_succ_s15 f2_total_strikes_att_s15 f2_takedown_succ_s15 f2_takedown_att_s15 f2_submission_att_s15 f2_reversals_s15 f2_ctrl_time_sec_s15 f2_sig_strikes_succ_m20 f2_sig_strikes_att_m20 f2_total_strikes_succ_m20 f2_total_strikes_att_m20 f2_takedown_succ_m20 f2_takedown_att_m20 f2_submission_att_m20 f2_reversals_m20 f2_ctrl_time_sec_m20 f2_sig_acc_m20 f2_td_acc_m20 f2_fights_last_365d_m20 f2_avg_days_between_fights_365d_m20 f2_sig_strikes_succ_s20 f2_sig_strikes_att_s20 f2_total_strikes_succ_s20 f2_takedown_succ_s20 f2_takedown_att_s20 f2_submission_att_s20 f2_reversals_s20 f2_ctrl_time_sec_s20 delta_sig_strikes_succ_m3 delta_sig_strikes_att_m3 delta_total_strikes_succ_m3 delta_total_strikes_att_m3 delta_takedown_succ_m3 delta_takedown_att_m3 delta_submission_att_m3 delta_reversals_m3 delta_ctrl_time_sec_m3 delta_sig_acc_m3 delta_td_acc_m3 delta_days_since_last_fight_m3 delta_fight_number_m3 delta_fights_last_365d_m3 delta_fights_last_730d_m3 delta_avg_days_between_fights_365d_m3 delta_sig_strikes_succ_m5 delta_sig_strikes_att_m5 delta_total_strikes_succ_m5 delta_total_strikes_att_m5 delta_takedown_succ_m5 delta_takedown_att_m5 delta_submission_att_m5 delta_reversals_m5 delta_ctrl_time_sec_m5 delta_sig_acc_m5 delta_td_acc_m5 delta_days_since_last_fight_m5 delta_fight_number_m5 delta_fights_last_365d_m5 delta_fights_last_730d_m5 delta_avg_days_between_fights_365d_m5 delta_sig_strikes_succ_m10 delta_sig_strikes_att_m10 delta_total_strikes_succ_m10 delta_total_strikes_att_m10 delta_takedown_succ_m10 delta_takedown_att_m10 delta_submission_att_m10 delta_reversals_m10 delta_ctrl_time_sec_m10 delta_sig_acc_m10 delta_td_acc_m10 delta_days_since_last_fight_m10 delta_fight_number_m10 delta_fights_last_365d_m10 delta_fights_last_730d_m10 delta_avg_days_between_fights_365d_m10 delta_sig_strikes_succ_m15 delta_sig_strikes_att_m15 delta_total_strikes_succ_m15 delta_total_strikes_att_m15 delta_takedown_succ_m15 delta_takedown_att_m15 delta_submission_att_m15 delta_reversals_m15 delta_ctrl_time_sec_m15 delta_sig_acc_m15 delta_td_acc_m15 delta_days_since_last_fight_m15 delta_fight_number_m15 delta_fights_last_365d_m15 delta_fights_last_730d_m15 delta_avg_days_between_fights_365d_m15 delta_sig_strikes_succ_m20 delta_sig_strikes_att_m20 delta_total_strikes_succ_m20 delta_takedown_succ_m20 delta_takedown_att_m20 delta_submission_att_m20 delta_reversals_m20 delta_ctrl_time_sec_m20 delta_sig_acc_m20 delta_td_acc_m20 delta_days_since_last_fight_m20 delta_fight_number_m20 delta_fights_last_365d_m20 delta_fights_last_730d_m20 delta_avg_days_between_fights_365d_m20 delta_days_since_last_fight mean_days_since_last_fight delta_fight_number mean_fight_number delta_fights_last_365d mean_fights_last_365d delta_fights_last_730d mean_fights_last_730d delta_avg_days_between_fights_365d mean_avg_days_between_fights_365d imp_f1_vigfree imp_f2_vigfree imp_f1 imp_f2 odds_f1 odds_f2 delta_imp_vigfree delta_imp mean_imp mean_imp_vigfree odds_delta vig f1_rank f2_rank delta_rank mean_rank rank_presence finish_round body_acc_10_f_1 body_acc_10_f_2 body_acc_11_f_1 body_acc_11_f_2 body_acc_12_f_1 body_acc_12_f_2 body_acc_15_f_2 body_acc_9_f_1 body_share_10_f_1 body_share_11_f_1 body_share_12_f_1 body_share_14_f_1 body_share_15_f_1 body_share_3_f_1 body_share_5_f_1 cardio_10_f_1 cardio_10_f_2 cardio_11_f_1 cardio_11_f_2 cardio_12_f_1 cardio_12_f_2 cardio_13_f_1 cardio_13_f_2 cardio_14_f_1 cardio_14_f_2 cardio_15_f_1 cardio_15_f_2 cardio_3_f_1 cardio_3_f_2 cardio_4_f_1 cardio_4_f_2 cardio_5_f_1 cardio_5_f_2 cardio_6_f_1 cardio_6_f_2 cardio_7_f_1 cardio_7_f_2 cardio_8_f_1 cardio_8_f_2 cardio_9_f_1 cardio_9_f_2 chin_10_f_1 chin_10_f_2 chin_11_f_1 chin_11_f_2 chin_12_f_1 chin_12_f_2 chin_13_f_1 chin_13_f_2 chin_14_f_1 chin_14_f_2 chin_15_f_1 chin_15_f_2 chin_3_f_1 chin_3_f_2 chin_4_f_1 chin_4_f_2 chin_5_f_1 chin_5_f_2 chin_6_f_1 chin_6_f_2 chin_7_f_1 chin_7_f_2 chin_8_f_1 chin_8_f_2 chin_9_f_1 chin_9_f_2 clinch_acc_10_f_2 clinch_acc_3_f_1 clinch_acc_5_f_2 clinch_acc_7_f_2 clinch_acc_9_f_2 clinch_share_10_f_2 clinch_share_12_f_1 clinch_share_13_f_1 clinch_share_14_f_1 clinch_share_14_f_2 clinch_share_15_f_2 clinch_share_4_f_1 clinch_share_5_f_1 clinch_share_6_f_1 clinch_share_9_f_1 ctrl_ratio_10_f_1 ctrl_ratio_10_f_2 ctrl_ratio_11_f_1 ctrl_ratio_11_f_2 ctrl_ratio_12_f_1 ctrl_ratio_12_f_2 ctrl_ratio_13_f_1 ctrl_ratio_14_f_1 ctrl_ratio_14_f_2 ctrl_ratio_15_f_1 ctrl_ratio_3_f_1 ctrl_ratio_3_f_2 ctrl_ratio_4_f_1 ctrl_ratio_4_f_2 ctrl_ratio_5_f_1 ctrl_ratio_5_f_2 ctrl_ratio_6_f_1 ctrl_ratio_6_f_2 ctrl_ratio_7_f_1 ctrl_ratio_7_f_2 ctrl_ratio_8_f_1 ctrl_ratio_8_f_2 ctrl_ratio_9_f_1 ctrl_ratio_9_f_2 diff_age diff_body_acc_11 diff_body_acc_12 diff_body_acc_5 diff_body_acc_8 diff_body_share_10 diff_body_share_3 diff_body_share_4 diff_body_share_5 diff_body_share_6 diff_body_share_7 diff_body_share_8 diff_body_share_9 diff_cardio_10 diff_cardio_11 diff_cardio_12 diff_cardio_13 diff_cardio_14 diff_cardio_15 diff_cardio_3 diff_cardio_4 diff_cardio_5 diff_cardio_6 diff_cardio_7 diff_chin_10 diff_chin_11 diff_chin_12 diff_chin_13 diff_chin_14 diff_chin_15 diff_chin_3 diff_chin_4 diff_chin_5 diff_chin_6 diff_chin_7 diff_chin_8 diff_clinch_acc_11 diff_clinch_acc_12 diff_clinch_acc_15 diff_clinch_share_12 diff_clinch_share_14 diff_clinch_share_15 diff_clinch_share_4 diff_ctrl_ratio_10 diff_ctrl_ratio_11 diff_ctrl_ratio_12 diff_ctrl_ratio_13 diff_ctrl_ratio_14 diff_ctrl_ratio_15 diff_ctrl_ratio_3 diff_ctrl_ratio_4 diff_ctrl_ratio_5 diff_ctrl_ratio_6 diff_ctrl_ratio_7 diff_ctrl_ratio_8 diff_ctrl_ratio_9 diff_distance_acc_15 diff_distance_acc_9 diff_distance_share_11 diff_distance_share_7 diff_dynamika_10 diff_dynamika_11 diff_dynamika_12 diff_dynamika_13 diff_dynamika_14 diff_dynamika_15 diff_dynamika_3 diff_dynamika_4 diff_dynamika_5 diff_dynamika_6 diff_dynamika_7 diff_dynamika_8 diff_dynamika_9 diff_fight_number diff_footwork_10 diff_footwork_11 diff_footwork_12 diff_footwork_13 diff_footwork_14 diff_footwork_15 diff_footwork_3 diff_footwork_4 diff_footwork_5 diff_footwork_6 diff_footwork_7 diff_footwork_8 diff_footwork_9 diff_ground_acc_12 diff_ground_acc_13 diff_ground_acc_6 diff_ground_share_7 diff_head_acc_11 diff_head_acc_12 diff_head_acc_15 diff_head_acc_5 diff_head_acc_6 diff_head_acc_7 diff_head_acc_8 diff_head_share_10 diff_head_share_11 diff_head_share_14 diff_head_share_3 diff_head_share_5 diff_head_share_6 diff_head_share_7 diff_head_share_8 diff_head_share_9 diff_leg_acc_10 diff_leg_acc_14 diff_leg_acc_3 diff_leg_acc_4 diff_leg_acc_6 diff_leg_acc_7 diff_leg_share_10 diff_leg_share_12 diff_leg_share_13 diff_leg_share_15 diff_leg_share_5 diff_odds diff_physical_strength_10 diff_physical_strength_11 diff_physical_strength_12 diff_physical_strength_13 diff_physical_strength_14 diff_physical_strength_15 diff_physical_strength_3 diff_physical_strength_4 diff_physical_strength_5 diff_physical_strength_6 diff_physical_strength_7 diff_physical_strength_8 diff_physical_strength_9 diff_punching_power_10 diff_punching_power_11 diff_punching_power_12 diff_punching_power_13 diff_punching_power_14 diff_punching_power_15 diff_punching_power_3 diff_punching_power_4 diff_punching_power_5 diff_punching_power_6 diff_punching_power_7 diff_punching_power_8 diff_punching_power_9 diff_ranking diff_sapm_10 diff_sapm_11 diff_sapm_12 diff_sapm_13 diff_sapm_14 diff_sapm_15 diff_sapm_3 diff_sapm_4 diff_sapm_5 diff_sapm_6 diff_sapm_7 diff_sapm_8 diff_sapm_9 diff_slpm_10 diff_slpm_11 diff_slpm_12 diff_slpm_13 diff_slpm_14 diff_slpm_15 diff_slpm_3 diff_slpm_4 diff_slpm_5 diff_slpm_6 diff_slpm_7 diff_slpm_8 diff_slpm_9 diff_speed_10 diff_speed_11 diff_speed_12 diff_speed_13 diff_speed_14 diff_speed_15 diff_speed_3 diff_speed_4 diff_speed_5 diff_speed_6 diff_speed_7 diff_speed_8 diff_speed_9 diff_str_acc_10 diff_str_acc_11 diff_str_acc_12 diff_str_acc_13 diff_str_acc_14 diff_str_acc_15 diff_str_acc_3 diff_str_acc_4 diff_str_acc_5 diff_str_acc_6 diff_str_acc_7 diff_str_acc_8 diff_str_acc_9 diff_str_def_10 diff_str_def_11 diff_str_def_12 diff_str_def_13 diff_str_def_14 diff_str_def_15 diff_str_def_3 diff_str_def_4 diff_str_def_5 diff_str_def_6 diff_str_def_7 diff_str_def_8 diff_str_def_9 diff_sub_avg_10 diff_sub_avg_11 diff_sub_avg_12 diff_sub_avg_13 diff_sub_avg_14 diff_sub_avg_15 diff_sub_avg_3 diff_sub_avg_4 diff_sub_avg_5 diff_sub_avg_6 diff_sub_avg_7 diff_sub_avg_8 diff_sub_avg_9 diff_td_acc_10 diff_td_acc_11 diff_td_acc_12 diff_td_acc_13 diff_td_acc_14 diff_td_acc_15 diff_td_acc_3 diff_td_acc_4 diff_td_acc_5 diff_td_acc_6 diff_td_acc_7 diff_td_acc_8 diff_td_acc_9 diff_td_avg_10 diff_td_avg_11 diff_td_avg_12 diff_td_avg_13 diff_td_avg_14 diff_td_avg_15 diff_td_avg_3 diff_td_avg_4 diff_td_avg_5 diff_td_avg_6 diff_td_avg_7 diff_td_avg_8 diff_td_avg_9 diff_td_def_10 diff_td_def_11 diff_td_def_12 diff_td_def_13 diff_td_def_14 diff_td_def_15 diff_td_def_3 diff_td_def_4 diff_td_def_5 diff_td_def_6 diff_td_def_7 diff_td_def_8 diff_td_def_9 diff_timing_10 diff_timing_11 diff_timing_12 diff_timing_13 diff_timing_14 diff_timing_15 diff_timing_3 diff_timing_4 diff_timing_5 diff_timing_6 diff_timing_7 diff_timing_8 diff_timing_9 distance_acc_3_f_1 distance_share_10_f_1 distance_share_10_f_2 distance_share_11_f_1 distance_share_12_f_2 distance_share_6_f_1 distance_share_7_f_2 distance_share_8_f_2 dynamika_10_f_1 dynamika_10_f_2 dynamika_11_f_1 dynamika_11_f_2 dynamika_12_f_1 dynamika_12_f_2 dynamika_13_f_1 dynamika_13_f_2 dynamika_14_f_1 dynamika_14_f_2 dynamika_15_f_1 dynamika_15_f_2 dynamika_3_f_1 dynamika_3_f_2 dynamika_4_f_1 dynamika_4_f_2 dynamika_5_f_1 dynamika_5_f_2 dynamika_6_f_1 dynamika_6_f_2 dynamika_7_f_1 dynamika_7_f_2 dynamika_8_f_1 dynamika_8_f_2 dynamika_9_f_1 dynamika_9_f_2 f_1_age f_1_distance_acc f_1_distance_succ_total f_1_fight_number f_1_fighter_SApM f_1_fighter_SlpM f_1_fighter_Str_Acc f_1_fighter_Str_Def f_1_fighter_Sub_Avg f_1_fighter_TD_Acc f_1_fighter_TD_Avg f_1_fighter_TD_Def f_1_fighter_d f_1_fighter_height_cm f_1_fighter_l f_1_fighter_nc_dq f_1_fighter_reach_cm f_1_fighter_w f_1_fighter_weight_lbs f_1_ground_acc f_1_ground_att_total f_1_ground_share f_1_ground_succ_total f_1_head_acc f_1_head_succ_total f_1_ko_odds f_1_odds f_1_ranking f_1_sig_pct_acc f_1_sub_odds f_1_td_1_acc f_1_td_1_succ_total f_1_total_strikes_acc f_1_total_strikes_succ_total f_2_age f_2_body_att_total f_2_body_succ_total f_2_distance_share f_2_fight_number f_2_fighter_SApM f_2_fighter_SlpM f_2_fighter_Str_Acc f_2_fighter_Str_Def f_2_fighter_Sub_Avg f_2_fighter_TD_Acc f_2_fighter_TD_Avg f_2_fighter_TD_Def f_2_fighter_d f_2_fighter_height_cm f_2_fighter_l f_2_fighter_reach_cm f_2_fighter_w f_2_fighter_weight_lbs f_2_ground_acc f_2_ground_att_total f_2_ground_share f_2_ground_succ_total f_2_head_acc f_2_head_succ_total f_2_ko_odds f_2_odds f_2_ranking f_2_sig_pct_acc f_2_sig_pct_succ_total f_2_sig_strikes_acc f_2_sig_strikes_succ_total f_2_sub_odds f_2_total_strikes_acc f_2_total_strikes_att_total f_2_total_strikes_succ_total fight_ordinal_f_1 finish_losses_10_f_1 finish_losses_10_f_2 finish_losses_11_f_2 finish_losses_12_f_1 finish_losses_12_f_2 finish_losses_13_f_1 finish_losses_13_f_2 finish_losses_14_f_1 finish_losses_14_f_2 finish_losses_15_f_1 finish_losses_15_f_2 finish_losses_3_f_1 finish_losses_3_f_2 finish_losses_4_f_1 finish_losses_4_f_2 finish_losses_5_f_2 finish_losses_6_f_1 finish_losses_7_f_1 finish_losses_8_f_1 finish_losses_8_f_2 finish_losses_9_f_2 finish_wins_10_f_1 finish_wins_10_f_2 finish_wins_11_f_1 finish_wins_12_f_1 finish_wins_13_f_1 finish_wins_14_f_1 finish_wins_15_f_1 finish_wins_15_f_2 finish_wins_4_f_2 finish_wins_6_f_1 finish_wins_7_f_1 finish_wins_7_f_2 finish_wins_8_f_1 finish_wins_9_f_1 footwork_10_f_1 footwork_10_f_2 footwork_11_f_1 footwork_11_f_2 footwork_12_f_1 footwork_12_f_2 footwork_13_f_1 footwork_13_f_2 footwork_14_f_1 footwork_14_f_2 footwork_15_f_1 footwork_3_f_1 footwork_3_f_2 footwork_4_f_1 footwork_4_f_2 footwork_5_f_1 footwork_5_f_2 footwork_6_f_1 footwork_6_f_2 footwork_7_f_1 footwork_7_f_2 footwork_8_f_1 footwork_8_f_2 footwork_9_f_1 footwork_9_f_2 ground_acc_11_f_2 ground_acc_15_f_2 ground_acc_4_f_1 ground_acc_8_f_2 ground_acc_9_f_2 ground_share_4_f_1 head_acc_13_f_2 head_acc_6_f_1 head_acc_7_f_1 head_share_12_f_1 head_share_12_f_2 head_share_13_f_1 head_share_14_f_1 head_share_3_f_1 head_share_5_f_1 head_share_8_f_2 leg_acc_10_f_1 leg_acc_12_f_1 leg_acc_13_f_1 leg_acc_4_f_2 leg_acc_5_f_1 leg_acc_7_f_2 leg_share_15_f_1 leg_share_3_f_1 leg_share_8_f_1 losing_streak_10_f_1 losing_streak_10_f_2 losing_streak_11_f_2 losing_streak_12_f_2 losing_streak_13_f_2 losses_10_f_1 losses_10_f_2 losses_11_f_1 losses_11_f_2 losses_12_f_1 losses_12_f_2 losses_13_f_1 losses_13_f_2 losses_14_f_1 losses_14_f_2 losses_3_f_1 losses_3_f_2 losses_4_f_1 losses_4_f_2 losses_5_f_1 losses_5_f_2 losses_6_f_2 losses_7_f_1 losses_7_f_2 losses_8_f_1 losses_9_f_1 physical_strength_10_f_1 physical_strength_10_f_2 physical_strength_11_f_1 physical_strength_11_f_2 physical_strength_12_f_1 physical_strength_12_f_2 physical_strength_13_f_1 physical_strength_13_f_2 physical_strength_14_f_1 physical_strength_14_f_2 physical_strength_15_f_1 physical_strength_15_f_2 physical_strength_3_f_1 physical_strength_3_f_2 physical_strength_4_f_1 physical_strength_4_f_2 physical_strength_5_f_1 physical_strength_5_f_2 physical_strength_6_f_1 physical_strength_6_f_2 physical_strength_7_f_1 physical_strength_7_f_2 physical_strength_8_f_1 physical_strength_8_f_2 physical_strength_9_f_1 physical_strength_9_f_2 punching_power_10_f_1 punching_power_10_f_2 punching_power_11_f_1 punching_power_11_f_2 punching_power_12_f_1 punching_power_12_f_2 punching_power_13_f_1 punching_power_13_f_2 punching_power_14_f_1 punching_power_14_f_2 punching_power_15_f_1 punching_power_15_f_2 punching_power_3_f_1 punching_power_3_f_2 punching_power_4_f_1 punching_power_4_f_2 punching_power_5_f_1 punching_power_5_f_2 punching_power_6_f_1 punching_power_7_f_1 punching_power_7_f_2 punching_power_8_f_1 punching_power_8_f_2 punching_power_9_f_1 punching_power_9_f_2 sapm_10_f_1 sapm_10_f_2 sapm_11_f_1 sapm_11_f_2 sapm_12_f_1 sapm_12_f_2 sapm_13_f_1 sapm_13_f_2 sapm_14_f_1 sapm_14_f_2 sapm_15_f_1 sapm_15_f_2 sapm_3_f_1 sapm_3_f_2 sapm_4_f_1 sapm_4_f_2 sapm_5_f_1 sapm_5_f_2 sapm_6_f_1 sapm_6_f_2 sapm_7_f_1 sapm_7_f_2 sapm_8_f_1 sapm_8_f_2 sapm_9_f_1 sapm_9_f_2 slpm_10_f_1 slpm_10_f_2 slpm_11_f_1 slpm_11_f_2 slpm_12_f_1 slpm_12_f_2 slpm_13_f_1 slpm_13_f_2 slpm_14_f_1 slpm_14_f_2 slpm_15_f_1 slpm_15_f_2 slpm_3_f_1 slpm_3_f_2 slpm_4_f_1 slpm_4_f_2 slpm_5_f_1 slpm_5_f_2 slpm_6_f_1 slpm_6_f_2 slpm_7_f_1 slpm_7_f_2 slpm_8_f_1 slpm_8_f_2 slpm_9_f_1 slpm_9_f_2 speed_10_f_1 speed_10_f_2 speed_11_f_1 speed_12_f_2 speed_13_f_1 speed_13_f_2 speed_14_f_1 speed_14_f_2 speed_15_f_1 speed_15_f_2 speed_3_f_1 speed_3_f_2 speed_4_f_1 speed_4_f_2 speed_5_f_1 speed_5_f_2 speed_6_f_1 speed_6_f_2 speed_7_f_1 speed_7_f_2 speed_8_f_1 speed_8_f_2 speed_9_f_1 speed_9_f_2 str_acc_10_f_1 str_acc_10_f_2 str_acc_11_f_1 str_acc_11_f_2 str_acc_12_f_1 str_acc_12_f_2 str_acc_13_f_1 str_acc_13_f_2 str_acc_14_f_1 str_acc_14_f_2 str_acc_15_f_1 str_acc_15_f_2 str_acc_3_f_1 str_acc_3_f_2 str_acc_4_f_1 str_acc_4_f_2 str_acc_5_f_1 str_acc_5_f_2 str_acc_6_f_1 str_acc_6_f_2 str_acc_7_f_1 str_acc_7_f_2 str_acc_8_f_1 str_acc_8_f_2 str_acc_9_f_1 str_acc_9_f_2 str_def_10_f_1 str_def_10_f_2 str_def_11_f_1 str_def_11_f_2 str_def_12_f_1 str_def_12_f_2 str_def_13_f_1 str_def_13_f_2 str_def_14_f_1 str_def_14_f_2 str_def_15_f_1 str_def_15_f_2 str_def_3_f_1 str_def_3_f_2 str_def_4_f_1 str_def_4_f_2 str_def_5_f_1 str_def_5_f_2 str_def_6_f_1 str_def_6_f_2 str_def_7_f_1 str_def_7_f_2 str_def_8_f_1 str_def_8_f_2 str_def_9_f_1 str_def_9_f_2 streak_10_f_1 streak_10_f_2 streak_11_f_1 streak_11_f_2 sub_avg_10_f_1 sub_avg_10_f_2 sub_avg_11_f_1 sub_avg_11_f_2 sub_avg_12_f_1 sub_avg_12_f_2 sub_avg_13_f_1 sub_avg_13_f_2 sub_avg_14_f_1 sub_avg_14_f_2 sub_avg_15_f_1 sub_avg_15_f_2 sub_avg_3_f_1 sub_avg_3_f_2 sub_avg_4_f_1 sub_avg_4_f_2 sub_avg_5_f_1 sub_avg_5_f_2 sub_avg_6_f_1 sub_avg_6_f_2 sub_avg_7_f_1 sub_avg_7_f_2 sub_avg_8_f_1 sub_avg_8_f_2 sub_avg_9_f_1 sub_avg_9_f_2 td_acc_10_f_1 td_acc_10_f_2 td_acc_11_f_1 td_acc_11_f_2 td_acc_12_f_1 td_acc_12_f_2 td_acc_13_f_1 td_acc_13_f_2 td_acc_14_f_1 td_acc_14_f_2 td_acc_15_f_1 td_acc_15_f_2 td_acc_3_f_1 td_acc_3_f_2 td_acc_4_f_1 td_acc_4_f_2 td_acc_5_f_1 td_acc_5_f_2 td_acc_6_f_1 td_acc_6_f_2 td_acc_7_f_1 td_acc_7_f_2 td_acc_8_f_1 td_acc_8_f_2 td_acc_9_f_1 td_acc_9_f_2 td_avg_10_f_1 td_avg_10_f_2 td_avg_11_f_1 td_avg_11_f_2 td_avg_12_f_1 td_avg_12_f_2 td_avg_13_f_1 td_avg_13_f_2 td_avg_14_f_1 td_avg_14_f_2 td_avg_15_f_1 td_avg_15_f_2 td_avg_3_f_1 td_avg_3_f_2 td_avg_4_f_1 td_avg_4_f_2 td_avg_5_f_1 td_avg_5_f_2 td_avg_6_f_1 td_avg_6_f_2 td_avg_7_f_1 td_avg_7_f_2 td_avg_8_f_1 td_avg_8_f_2 td_avg_9_f_1 td_avg_9_f_2 td_def_10_f_1 td_def_10_f_2 td_def_11_f_1 td_def_11_f_2 td_def_12_f_1 td_def_12_f_2 td_def_13_f_1 td_def_13_f_2 td_def_14_f_1 td_def_14_f_2 td_def_15_f_1 td_def_15_f_2 td_def_3_f_1 td_def_3_f_2 td_def_4_f_1 td_def_4_f_2 td_def_5_f_1 td_def_5_f_2 td_def_6_f_1 td_def_6_f_2 td_def_7_f_1 td_def_7_f_2 td_def_8_f_1 td_def_8_f_2 td_def_9_f_1 td_def_9_f_2 timing_10_f_1 timing_10_f_2 timing_11_f_1 timing_11_f_2 timing_12_f_1 timing_12_f_2 timing_13_f_1 timing_13_f_2 timing_14_f_1 timing_14_f_2 timing_15_f_1 timing_15_f_2 timing_3_f_1 timing_3_f_2 timing_4_f_1 timing_4_f_2 timing_5_f_1 timing_5_f_2 timing_6_f_1 timing_6_f_2 timing_7_f_1 timing_7_f_2 timing_8_f_1 timing_8_f_2 timing_9_f_1 timing_9_f_2 wins_10_f_1 wins_10_f_2 wins_11_f_1 wins_12_f_1 wins_12_f_2 wins_13_f_1 wins_14_f_1 wins_3_f_1 wins_3_f_2 wins_4_f_1 wins_4_f_2 wins_5_f_1 wins_5_f_2 wins_6_f_1 wins_6_f_2 wins_7_f_1 wins_7_f_2 wins_8_f_1 f1_days_since_last_fight_missing f1_fights_last_365d_missing f1_fights_last_730d_missing f1_avg_days_between_fights_365d_missing f1_sig_strikes_succ_m3_missing f1_sig_strikes_att_m3_missing f1_total_strikes_succ_m3_missing f1_total_strikes_att_m3_missing f1_takedown_succ_m3_missing f1_takedown_att_m3_missing f1_submission_att_m3_missing f1_reversals_m3_missing f1_ctrl_time_sec_m3_missing f1_sig_acc_m3_missing f1_td_acc_m3_missing f1_days_since_last_fight_m3_missing f1_fight_number_m3_missing f1_fights_last_365d_m3_missing f1_fights_last_730d_m3_missing f1_avg_days_between_fights_365d_m3_missing f1_sig_strikes_succ_s3_missing f1_sig_strikes_att_s3_missing f1_total_strikes_succ_s3_missing f1_total_strikes_att_s3_missing f1_takedown_succ_s3_missing f1_takedown_att_s3_missing f1_reversals_s3_missing f1_ctrl_time_sec_s3_missing f1_sig_strikes_succ_m5_missing f1_sig_strikes_att_m5_missing f1_total_strikes_succ_m5_missing f1_total_strikes_att_m5_missing f1_takedown_succ_m5_missing f1_takedown_att_m5_missing f1_submission_att_m5_missing f1_reversals_m5_missing f1_ctrl_time_sec_m5_missing f1_sig_acc_m5_missing f1_td_acc_m5_missing f1_days_since_last_fight_m5_missing f1_fights_last_365d_m5_missing f1_fights_last_730d_m5_missing f1_avg_days_between_fights_365d_m5_missing f1_sig_strikes_succ_s5_missing f1_sig_strikes_att_s5_missing f1_total_strikes_succ_s5_missing f1_total_strikes_att_s5_missing f1_takedown_succ_s5_missing f1_takedown_att_s5_missing f1_submission_att_s5_missing f1_reversals_s5_missing f1_ctrl_time_sec_s5_missing f1_sig_strikes_succ_m10_missing f1_sig_strikes_att_m10_missing f1_total_strikes_succ_m10_missing f1_total_strikes_att_m10_missing f1_takedown_succ_m10_missing f1_takedown_att_m10_missing f1_submission_att_m10_missing f1_reversals_m10_missing f1_ctrl_time_sec_m10_missing f1_sig_acc_m10_missing f1_td_acc_m10_missing f1_days_since_last_fight_m10_missing f1_fights_last_365d_m10_missing f1_fights_last_730d_m10_missing f1_avg_days_between_fights_365d_m10_missing f1_sig_strikes_succ_s10_missing f1_sig_strikes_att_s10_missing f1_total_strikes_succ_s10_missing f1_total_strikes_att_s10_missing f1_takedown_succ_s10_missing f1_takedown_att_s10_missing f1_submission_att_s10_missing f1_reversals_s10_missing f1_ctrl_time_sec_s10_missing f1_sig_strikes_succ_m15_missing f1_sig_strikes_att_m15_missing f1_total_strikes_succ_m15_missing f1_total_strikes_att_m15_missing f1_takedown_succ_m15_missing f1_takedown_att_m15_missing f1_submission_att_m15_missing f1_reversals_m15_missing f1_ctrl_time_sec_m15_missing f1_sig_acc_m15_missing f1_td_acc_m15_missing f1_days_since_last_fight_m15_missing f1_fights_last_365d_m15_missing f1_fights_last_730d_m15_missing f1_sig_strikes_succ_s15_missing f1_sig_strikes_att_s15_missing f1_total_strikes_succ_s15_missing f1_total_strikes_att_s15_missing f1_takedown_succ_s15_missing f1_takedown_att_s15_missing f1_submission_att_s15_missing f1_reversals_s15_missing f1_ctrl_time_sec_s15_missing f1_sig_strikes_succ_m20_missing f1_sig_strikes_att_m20_missing f1_total_strikes_succ_m20_missing f1_total_strikes_att_m20_missing f1_takedown_succ_m20_missing f1_takedown_att_m20_missing f1_submission_att_m20_missing f1_reversals_m20_missing f1_ctrl_time_sec_m20_missing f1_sig_acc_m20_missing f1_td_acc_m20_missing f1_days_since_last_fight_m20_missing f1_fights_last_365d_m20_missing f1_fights_last_730d_m20_missing f1_sig_strikes_att_s20_missing f1_total_strikes_succ_s20_missing f1_total_strikes_att_s20_missing f1_takedown_succ_s20_missing f1_takedown_att_s20_missing f1_submission_att_s20_missing f1_reversals_s20_missing f1_ctrl_time_sec_s20_missing f2_days_since_last_fight_missing f2_fight_number_missing f2_fights_last_365d_missing f2_fights_last_730d_missing f2_avg_days_between_fights_365d_missing f2_sig_strikes_succ_m3_missing f2_sig_strikes_att_m3_missing f2_total_strikes_succ_m3_missing f2_total_strikes_att_m3_missing f2_takedown_succ_m3_missing f2_takedown_att_m3_missing f2_submission_att_m3_missing f2_reversals_m3_missing f2_ctrl_time_sec_m3_missing f2_sig_acc_m3_missing f2_td_acc_m3_missing f2_days_since_last_fight_m3_missing f2_fights_last_365d_m3_missing f2_fights_last_730d_m3_missing f2_avg_days_between_fights_365d_m3_missing f2_sig_strikes_succ_s3_missing f2_sig_strikes_att_s3_missing f2_total_strikes_succ_s3_missing f2_total_strikes_att_s3_missing f2_takedown_succ_s3_missing f2_takedown_att_s3_missing f2_ctrl_time_sec_s3_missing f2_sig_strikes_succ_m5_missing f2_sig_strikes_att_m5_missing f2_total_strikes_succ_m5_missing f2_total_strikes_att_m5_missing f2_takedown_succ_m5_missing f2_takedown_att_m5_missing f2_submission_att_m5_missing f2_reversals_m5_missing f2_ctrl_time_sec_m5_missing f2_sig_acc_m5_missing f2_td_acc_m5_missing f2_days_since_last_fight_m5_missing f2_fights_last_365d_m5_missing f2_fights_last_730d_m5_missing f2_avg_days_between_fights_365d_m5_missing f2_sig_strikes_succ_s5_missing f2_sig_strikes_att_s5_missing f2_total_strikes_succ_s5_missing f2_total_strikes_att_s5_missing f2_takedown_succ_s5_missing f2_takedown_att_s5_missing f2_submission_att_s5_missing f2_ctrl_time_sec_s5_missing f2_sig_strikes_succ_m10_missing f2_sig_strikes_att_m10_missing f2_total_strikes_succ_m10_missing f2_total_strikes_att_m10_missing f2_takedown_succ_m10_missing f2_takedown_att_m10_missing f2_submission_att_m10_missing f2_reversals_m10_missing f2_ctrl_time_sec_m10_missing f2_sig_acc_m10_missing f2_td_acc_m10_missing f2_days_since_last_fight_m10_missing f2_fights_last_365d_m10_missing f2_fights_last_730d_m10_missing f2_avg_days_between_fights_365d_m10_missing f2_sig_strikes_succ_s10_missing f2_sig_strikes_att_s10_missing f2_total_strikes_succ_s10_missing f2_total_strikes_att_s10_missing f2_takedown_att_s10_missing f2_submission_att_s10_missing f2_ctrl_time_sec_s10_missing f2_sig_strikes_succ_m15_missing f2_sig_strikes_att_m15_missing f2_total_strikes_succ_m15_missing f2_total_strikes_att_m15_missing f2_takedown_succ_m15_missing f2_takedown_att_m15_missing f2_submission_att_m15_missing f2_reversals_m15_missing f2_ctrl_time_sec_m15_missing f2_sig_acc_m15_missing f2_td_acc_m15_missing f2_fights_last_365d_m15_missing f2_fights_last_730d_m15_missing f2_avg_days_between_fights_365d_m15_missing f2_sig_strikes_succ_s15_missing f2_sig_strikes_att_s15_missing f2_total_strikes_succ_s15_missing f2_total_strikes_att_s15_missing f2_takedown_succ_s15_missing f2_takedown_att_s15_missing f2_submission_att_s15_missing f2_reversals_s15_missing f2_ctrl_time_sec_s15_missing f2_sig_strikes_succ_m20_missing f2_sig_strikes_att_m20_missing f2_total_strikes_succ_m20_missing f2_total_strikes_att_m20_missing f2_takedown_succ_m20_missing f2_takedown_att_m20_missing f2_submission_att_m20_missing f2_reversals_m20_missing f2_ctrl_time_sec_m20_missing f2_sig_acc_m20_missing f2_td_acc_m20_missing f2_fights_last_365d_m20_missing f2_avg_days_between_fights_365d_m20_missing f2_sig_strikes_succ_s20_missing f2_sig_strikes_att_s20_missing f2_total_strikes_succ_s20_missing f2_takedown_succ_s20_missing f2_takedown_att_s20_missing f2_submission_att_s20_missing f2_reversals_s20_missing f2_ctrl_time_sec_s20_missing delta_sig_strikes_succ_m3_missing delta_sig_strikes_att_m3_missing delta_total_strikes_succ_m3_missing delta_total_strikes_att_m3_missing delta_takedown_succ_m3_missing delta_takedown_att_m3_missing delta_submission_att_m3_missing delta_reversals_m3_missing delta_ctrl_time_sec_m3_missing delta_sig_acc_m3_missing delta_td_acc_m3_missing delta_days_since_last_fight_m3_missing delta_fight_number_m3_missing delta_fights_last_365d_m3_missing delta_fights_last_730d_m3_missing delta_avg_days_between_fights_365d_m3_missing delta_sig_strikes_succ_m5_missing delta_sig_strikes_att_m5_missing delta_total_strikes_succ_m5_missing delta_total_strikes_att_m5_missing delta_takedown_succ_m5_missing delta_takedown_att_m5_missing delta_submission_att_m5_missing delta_reversals_m5_missing delta_ctrl_time_sec_m5_missing delta_sig_acc_m5_missing delta_td_acc_m5_missing delta_days_since_last_fight_m5_missing delta_fight_number_m5_missing delta_fights_last_365d_m5_missing delta_fights_last_730d_m5_missing delta_avg_days_between_fights_365d_m5_missing delta_sig_strikes_succ_m10_missing delta_sig_strikes_att_m10_missing delta_total_strikes_succ_m10_missing delta_total_strikes_att_m10_missing delta_takedown_succ_m10_missing delta_takedown_att_m10_missing delta_submission_att_m10_missing delta_reversals_m10_missing delta_ctrl_time_sec_m10_missing delta_sig_acc_m10_missing delta_td_acc_m10_missing delta_days_since_last_fight_m10_missing delta_fight_number_m10_missing delta_fights_last_365d_m10_missing delta_fights_last_730d_m10_missing delta_avg_days_between_fights_365d_m10_missing delta_sig_strikes_succ_m15_missing delta_sig_strikes_att_m15_missing delta_total_strikes_succ_m15_missing delta_total_strikes_att_m15_missing delta_takedown_succ_m15_missing delta_takedown_att_m15_missing delta_submission_att_m15_missing delta_reversals_m15_missing delta_ctrl_time_sec_m15_missing delta_sig_acc_m15_missing delta_td_acc_m15_missing delta_days_since_last_fight_m15_missing delta_fight_number_m15_missing delta_fights_last_365d_m15_missing delta_fights_last_730d_m15_missing delta_avg_days_between_fights_365d_m15_missing delta_sig_strikes_succ_m20_missing delta_sig_strikes_att_m20_missing delta_total_strikes_succ_m20_missing delta_takedown_succ_m20_missing delta_takedown_att_m20_missing delta_submission_att_m20_missing delta_reversals_m20_missing delta_ctrl_time_sec_m20_missing delta_sig_acc_m20_missing delta_td_acc_m20_missing delta_days_since_last_fight_m20_missing delta_fight_number_m20_missing delta_fights_last_365d_m20_missing delta_fights_last_730d_m20_missing delta_avg_days_between_fights_365d_m20_missing delta_days_since_last_fight_missing mean_days_since_last_fight_missing delta_fight_number_missing mean_fight_number_missing delta_fights_last_365d_missing mean_fights_last_365d_missing delta_fights_last_730d_missing mean_fights_last_730d_missing delta_avg_days_between_fights_365d_missing mean_avg_days_between_fights_365d_missing imp_f1_vigfree_missing imp_f2_vigfree_missing imp_f1_missing imp_f2_missing odds_f1_missing odds_f2_missing delta_imp_vigfree_missing delta_imp_missing mean_imp_missing mean_imp_vigfree_missing odds_delta_missing vig_missing f1_rank_missing f2_rank_missing delta_rank_missing mean_rank_missing rank_presence_missing finish_round_missing body_acc_10_f_1_missing body_acc_10_f_2_missing body_acc_11_f_1_missing body_acc_11_f_2_missing body_acc_12_f_1_missing body_acc_12_f_2_missing body_acc_15_f_2_missing body_acc_9_f_1_missing body_share_10_f_1_missing body_share_11_f_1_missing body_share_12_f_1_missing body_share_14_f_1_missing body_share_15_f_1_missing body_share_3_f_1_missing body_share_5_f_1_missing cardio_10_f_1_missing cardio_10_f_2_missing cardio_11_f_1_missing cardio_11_f_2_missing cardio_12_f_1_missing cardio_12_f_2_missing cardio_13_f_1_missing cardio_13_f_2_missing cardio_14_f_1_missing cardio_14_f_2_missing cardio_15_f_1_missing cardio_15_f_2_missing cardio_3_f_1_missing cardio_3_f_2_missing cardio_4_f_1_missing cardio_4_f_2_missing cardio_5_f_1_missing cardio_5_f_2_missing cardio_6_f_1_missing cardio_6_f_2_missing cardio_7_f_1_missing cardio_7_f_2_missing cardio_8_f_1_missing cardio_8_f_2_missing cardio_9_f_1_missing cardio_9_f_2_missing chin_10_f_1_missing chin_10_f_2_missing chin_11_f_1_missing chin_11_f_2_missing chin_12_f_1_missing chin_12_f_2_missing chin_13_f_1_missing chin_13_f_2_missing chin_14_f_1_missing chin_14_f_2_missing chin_15_f_1_missing chin_15_f_2_missing chin_3_f_1_missing chin_3_f_2_missing chin_4_f_1_missing chin_4_f_2_missing chin_5_f_1_missing chin_5_f_2_missing chin_6_f_1_missing chin_6_f_2_missing chin_7_f_1_missing chin_7_f_2_missing chin_8_f_1_missing chin_8_f_2_missing chin_9_f_1_missing chin_9_f_2_missing clinch_acc_10_f_2_missing clinch_acc_3_f_1_missing clinch_acc_5_f_2_missing clinch_acc_7_f_2_missing clinch_acc_9_f_2_missing clinch_share_10_f_2_missing clinch_share_12_f_1_missing clinch_share_13_f_1_missing clinch_share_14_f_1_missing clinch_share_14_f_2_missing clinch_share_15_f_2_missing clinch_share_4_f_1_missing clinch_share_5_f_1_missing clinch_share_6_f_1_missing clinch_share_9_f_1_missing ctrl_ratio_10_f_1_missing ctrl_ratio_10_f_2_missing ctrl_ratio_11_f_1_missing ctrl_ratio_11_f_2_missing ctrl_ratio_12_f_1_missing ctrl_ratio_12_f_2_missing ctrl_ratio_13_f_1_missing ctrl_ratio_14_f_1_missing ctrl_ratio_14_f_2_missing ctrl_ratio_15_f_1_missing ctrl_ratio_3_f_1_missing ctrl_ratio_3_f_2_missing ctrl_ratio_4_f_1_missing ctrl_ratio_4_f_2_missing ctrl_ratio_5_f_1_missing ctrl_ratio_5_f_2_missing ctrl_ratio_6_f_1_missing ctrl_ratio_6_f_2_missing ctrl_ratio_7_f_1_missing ctrl_ratio_7_f_2_missing ctrl_ratio_8_f_1_missing ctrl_ratio_8_f_2_missing ctrl_ratio_9_f_1_missing ctrl_ratio_9_f_2_missing diff_age_missing diff_body_acc_11_missing diff_body_acc_12_missing diff_body_acc_5_missing diff_body_acc_8_missing diff_body_share_10_missing diff_body_share_3_missing diff_body_share_4_missing diff_body_share_5_missing diff_body_share_6_missing diff_body_share_7_missing diff_body_share_8_missing diff_body_share_9_missing diff_cardio_10_missing diff_cardio_11_missing diff_cardio_12_missing diff_cardio_13_missing diff_cardio_14_missing diff_cardio_15_missing diff_cardio_3_missing diff_cardio_4_missing diff_cardio_5_missing diff_cardio_6_missing diff_cardio_7_missing diff_chin_10_missing diff_chin_11_missing diff_chin_12_missing diff_chin_13_missing diff_chin_14_missing diff_chin_15_missing diff_chin_3_missing diff_chin_4_missing diff_chin_5_missing diff_chin_6_missing diff_chin_7_missing diff_chin_8_missing diff_clinch_acc_11_missing diff_clinch_acc_12_missing diff_clinch_acc_15_missing diff_clinch_share_12_missing diff_clinch_share_14_missing diff_clinch_share_15_missing diff_clinch_share_4_missing diff_ctrl_ratio_10_missing diff_ctrl_ratio_11_missing diff_ctrl_ratio_12_missing diff_ctrl_ratio_13_missing diff_ctrl_ratio_14_missing diff_ctrl_ratio_15_missing diff_ctrl_ratio_3_missing diff_ctrl_ratio_4_missing diff_ctrl_ratio_5_missing diff_ctrl_ratio_6_missing diff_ctrl_ratio_7_missing diff_ctrl_ratio_8_missing diff_ctrl_ratio_9_missing diff_distance_acc_15_missing diff_distance_acc_9_missing diff_distance_share_11_missing diff_distance_share_7_missing diff_dynamika_10_missing diff_dynamika_11_missing diff_dynamika_12_missing diff_dynamika_13_missing diff_dynamika_14_missing diff_dynamika_15_missing diff_dynamika_3_missing diff_dynamika_4_missing diff_dynamika_5_missing diff_dynamika_6_missing diff_dynamika_7_missing diff_dynamika_8_missing diff_dynamika_9_missing diff_fight_number_missing diff_footwork_10_missing diff_footwork_11_missing diff_footwork_12_missing diff_footwork_13_missing diff_footwork_14_missing diff_footwork_15_missing diff_footwork_3_missing diff_footwork_4_missing diff_footwork_5_missing diff_footwork_6_missing diff_footwork_7_missing diff_footwork_8_missing diff_footwork_9_missing diff_ground_acc_12_missing diff_ground_acc_13_missing diff_ground_acc_6_missing diff_ground_share_7_missing diff_head_acc_11_missing diff_head_acc_12_missing diff_head_acc_15_missing diff_head_acc_5_missing diff_head_acc_6_missing diff_head_acc_7_missing diff_head_acc_8_missing diff_head_share_10_missing diff_head_share_11_missing diff_head_share_14_missing diff_head_share_3_missing diff_head_share_5_missing diff_head_share_6_missing diff_head_share_7_missing diff_head_share_8_missing diff_head_share_9_missing diff_leg_acc_10_missing diff_leg_acc_14_missing diff_leg_acc_3_missing diff_leg_acc_4_missing diff_leg_acc_6_missing diff_leg_acc_7_missing diff_leg_share_10_missing diff_leg_share_12_missing diff_leg_share_13_missing diff_leg_share_15_missing diff_leg_share_5_missing diff_odds_missing diff_physical_strength_10_missing diff_physical_strength_11_missing diff_physical_strength_12_missing diff_physical_strength_13_missing diff_physical_strength_14_missing diff_physical_strength_15_missing diff_physical_strength_3_missing diff_physical_strength_4_missing diff_physical_strength_5_missing diff_physical_strength_6_missing diff_physical_strength_7_missing diff_physical_strength_8_missing diff_physical_strength_9_missing diff_punching_power_10_missing diff_punching_power_11_missing diff_punching_power_12_missing diff_punching_power_13_missing diff_punching_power_14_missing diff_punching_power_15_missing diff_punching_power_3_missing diff_punching_power_4_missing diff_punching_power_5_missing diff_punching_power_6_missing diff_punching_power_7_missing diff_punching_power_8_missing diff_punching_power_9_missing diff_ranking_missing diff_sapm_10_missing diff_sapm_11_missing diff_sapm_12_missing diff_sapm_13_missing diff_sapm_14_missing diff_sapm_15_missing diff_sapm_3_missing diff_sapm_4_missing diff_sapm_5_missing diff_sapm_6_missing diff_sapm_7_missing diff_sapm_8_missing diff_sapm_9_missing diff_slpm_10_missing diff_slpm_11_missing diff_slpm_12_missing diff_slpm_13_missing diff_slpm_14_missing diff_slpm_15_missing diff_slpm_3_missing diff_slpm_4_missing diff_slpm_5_missing diff_slpm_6_missing diff_slpm_7_missing diff_slpm_8_missing diff_slpm_9_missing diff_speed_10_missing diff_speed_11_missing diff_speed_12_missing diff_speed_13_missing diff_speed_14_missing diff_speed_15_missing diff_speed_3_missing diff_speed_4_missing diff_speed_5_missing diff_speed_6_missing diff_speed_7_missing diff_speed_8_missing diff_speed_9_missing diff_str_acc_10_missing diff_str_acc_11_missing diff_str_acc_12_missing diff_str_acc_13_missing diff_str_acc_14_missing diff_str_acc_15_missing diff_str_acc_3_missing diff_str_acc_4_missing diff_str_acc_5_missing diff_str_acc_6_missing diff_str_acc_7_missing diff_str_acc_8_missing diff_str_acc_9_missing diff_str_def_10_missing diff_str_def_11_missing diff_str_def_12_missing diff_str_def_13_missing diff_str_def_14_missing diff_str_def_15_missing diff_str_def_3_missing diff_str_def_4_missing diff_str_def_5_missing diff_str_def_6_missing diff_str_def_7_missing diff_str_def_8_missing diff_str_def_9_missing diff_sub_avg_10_missing diff_sub_avg_11_missing diff_sub_avg_12_missing diff_sub_avg_13_missing diff_sub_avg_14_missing diff_sub_avg_15_missing diff_sub_avg_3_missing diff_sub_avg_4_missing diff_sub_avg_5_missing diff_sub_avg_6_missing diff_sub_avg_7_missing diff_sub_avg_8_missing diff_sub_avg_9_missing diff_td_acc_10_missing diff_td_acc_11_missing diff_td_acc_12_missing diff_td_acc_13_missing diff_td_acc_14_missing diff_td_acc_15_missing diff_td_acc_3_missing diff_td_acc_4_missing diff_td_acc_5_missing diff_td_acc_6_missing diff_td_acc_7_missing diff_td_acc_8_missing diff_td_acc_9_missing diff_td_avg_10_missing diff_td_avg_11_missing diff_td_avg_12_missing diff_td_avg_13_missing diff_td_avg_14_missing diff_td_avg_15_missing diff_td_avg_3_missing diff_td_avg_4_missing diff_td_avg_5_missing diff_td_avg_6_missing diff_td_avg_7_missing diff_td_avg_8_missing diff_td_avg_9_missing diff_td_def_10_missing diff_td_def_11_missing diff_td_def_12_missing diff_td_def_13_missing diff_td_def_14_missing diff_td_def_15_missing diff_td_def_3_missing diff_td_def_4_missing diff_td_def_5_missing diff_td_def_6_missing diff_td_def_7_missing diff_td_def_8_missing diff_td_def_9_missing diff_timing_10_missing diff_timing_11_missing diff_timing_12_missing diff_timing_13_missing diff_timing_14_missing diff_timing_15_missing diff_timing_3_missing diff_timing_4_missing diff_timing_5_missing diff_timing_6_missing diff_timing_7_missing diff_timing_8_missing diff_timing_9_missing distance_acc_3_f_1_missing distance_share_10_f_1_missing distance_share_10_f_2_missing distance_share_11_f_1_missing distance_share_12_f_2_missing distance_share_6_f_1_missing distance_share_7_f_2_missing distance_share_8_f_2_missing dynamika_10_f_1_missing dynamika_10_f_2_missing dynamika_11_f_1_missing dynamika_11_f_2_missing dynamika_12_f_1_missing dynamika_12_f_2_missing dynamika_13_f_1_missing dynamika_13_f_2_missing dynamika_14_f_1_missing dynamika_14_f_2_missing dynamika_15_f_1_missing dynamika_15_f_2_missing dynamika_3_f_1_missing dynamika_3_f_2_missing dynamika_4_f_1_missing dynamika_4_f_2_missing dynamika_5_f_1_missing dynamika_5_f_2_missing dynamika_6_f_1_missing dynamika_6_f_2_missing dynamika_7_f_1_missing dynamika_7_f_2_missing dynamika_8_f_1_missing dynamika_8_f_2_missing dynamika_9_f_1_missing dynamika_9_f_2_missing f_1_age_missing f_1_distance_acc_missing f_1_distance_succ_total_missing f_1_fight_number_missing f_1_fighter_SApM_missing f_1_fighter_SlpM_missing f_1_fighter_Str_Acc_missing f_1_fighter_Str_Def_missing f_1_fighter_Sub_Avg_missing f_1_fighter_TD_Acc_missing f_1_fighter_TD_Avg_missing f_1_fighter_TD_Def_missing f_1_fighter_d_missing f_1_fighter_height_cm_missing f_1_fighter_l_missing f_1_fighter_nc_dq_missing f_1_fighter_reach_cm_missing f_1_fighter_w_missing f_1_fighter_weight_lbs_missing f_1_ground_acc_missing f_1_ground_att_total_missing f_1_ground_share_missing f_1_ground_succ_total_missing f_1_head_acc_missing f_1_head_succ_total_missing f_1_ko_odds_missing f_1_odds_missing f_1_ranking_missing f_1_sig_pct_acc_missing f_1_sub_odds_missing f_1_td_1_acc_missing f_1_td_1_succ_total_missing f_1_total_strikes_acc_missing f_1_total_strikes_succ_total_missing f_2_age_missing f_2_body_att_total_missing f_2_body_succ_total_missing f_2_distance_share_missing f_2_fight_number_missing f_2_fighter_SApM_missing f_2_fighter_SlpM_missing f_2_fighter_Str_Acc_missing f_2_fighter_Str_Def_missing f_2_fighter_Sub_Avg_missing f_2_fighter_TD_Acc_missing f_2_fighter_TD_Avg_missing f_2_fighter_TD_Def_missing f_2_fighter_d_missing f_2_fighter_height_cm_missing f_2_fighter_l_missing f_2_fighter_reach_cm_missing f_2_fighter_w_missing f_2_fighter_weight_lbs_missing f_2_ground_acc_missing f_2_ground_att_total_missing f_2_ground_share_missing f_2_ground_succ_total_missing f_2_head_acc_missing f_2_head_succ_total_missing f_2_ko_odds_missing f_2_odds_missing f_2_ranking_missing f_2_sig_pct_acc_missing f_2_sig_pct_succ_total_missing f_2_sig_strikes_acc_missing f_2_sig_strikes_succ_total_missing f_2_sub_odds_missing f_2_total_strikes_acc_missing f_2_total_strikes_att_total_missing f_2_total_strikes_succ_total_missing fight_ordinal_f_1_missing finish_losses_10_f_1_missing finish_losses_10_f_2_missing finish_losses_11_f_2_missing finish_losses_12_f_1_missing finish_losses_12_f_2_missing finish_losses_13_f_1_missing finish_losses_13_f_2_missing finish_losses_14_f_1_missing finish_losses_14_f_2_missing finish_losses_15_f_1_missing finish_losses_15_f_2_missing finish_losses_3_f_1_missing finish_losses_3_f_2_missing finish_losses_4_f_1_missing finish_losses_4_f_2_missing finish_losses_5_f_2_missing finish_losses_6_f_1_missing finish_losses_7_f_1_missing finish_losses_8_f_1_missing finish_losses_8_f_2_missing finish_losses_9_f_2_missing finish_wins_10_f_1_missing finish_wins_10_f_2_missing finish_wins_11_f_1_missing finish_wins_12_f_1_missing finish_wins_13_f_1_missing finish_wins_14_f_1_missing finish_wins_15_f_1_missing finish_wins_15_f_2_missing finish_wins_4_f_2_missing finish_wins_6_f_1_missing finish_wins_7_f_1_missing finish_wins_7_f_2_missing finish_wins_8_f_1_missing finish_wins_9_f_1_missing footwork_10_f_1_missing footwork_10_f_2_missing footwork_11_f_1_missing footwork_11_f_2_missing footwork_12_f_1_missing footwork_12_f_2_missing footwork_13_f_1_missing footwork_13_f_2_missing footwork_14_f_1_missing footwork_14_f_2_missing footwork_15_f_1_missing footwork_3_f_1_missing footwork_3_f_2_missing footwork_4_f_1_missing footwork_4_f_2_missing footwork_5_f_1_missing footwork_5_f_2_missing footwork_6_f_1_missing footwork_6_f_2_missing footwork_7_f_1_missing footwork_7_f_2_missing footwork_8_f_1_missing footwork_8_f_2_missing footwork_9_f_1_missing footwork_9_f_2_missing ground_acc_11_f_2_missing ground_acc_15_f_2_missing ground_acc_4_f_1_missing ground_acc_8_f_2_missing ground_acc_9_f_2_missing ground_share_4_f_1_missing head_acc_13_f_2_missing head_acc_6_f_1_missing head_acc_7_f_1_missing head_share_12_f_1_missing head_share_12_f_2_missing head_share_13_f_1_missing head_share_14_f_1_missing head_share_3_f_1_missing head_share_5_f_1_missing head_share_8_f_2_missing leg_acc_10_f_1_missing leg_acc_12_f_1_missing leg_acc_13_f_1_missing leg_acc_4_f_2_missing leg_acc_5_f_1_missing leg_acc_7_f_2_missing leg_share_15_f_1_missing leg_share_3_f_1_missing leg_share_8_f_1_missing losing_streak_10_f_1_missing losing_streak_10_f_2_missing losing_streak_11_f_2_missing losing_streak_12_f_2_missing losing_streak_13_f_2_missing losses_10_f_1_missing losses_10_f_2_missing losses_11_f_1_missing losses_11_f_2_missing losses_12_f_1_missing losses_12_f_2_missing losses_13_f_1_missing losses_13_f_2_missing losses_14_f_1_missing losses_14_f_2_missing losses_3_f_1_missing losses_3_f_2_missing losses_4_f_1_missing losses_4_f_2_missing losses_5_f_1_missing losses_5_f_2_missing losses_6_f_2_missing losses_7_f_1_missing losses_7_f_2_missing losses_8_f_1_missing losses_9_f_1_missing physical_strength_10_f_1_missing physical_strength_10_f_2_missing physical_strength_11_f_1_missing physical_strength_11_f_2_missing physical_strength_12_f_1_missing physical_strength_12_f_2_missing physical_strength_13_f_1_missing physical_strength_13_f_2_missing physical_strength_14_f_1_missing physical_strength_14_f_2_missing physical_strength_15_f_1_missing physical_strength_15_f_2_missing physical_strength_3_f_1_missing physical_strength_3_f_2_missing physical_strength_4_f_1_missing physical_strength_4_f_2_missing physical_strength_5_f_1_missing physical_strength_5_f_2_missing physical_strength_6_f_1_missing physical_strength_6_f_2_missing physical_strength_7_f_1_missing physical_strength_7_f_2_missing physical_strength_8_f_1_missing physical_strength_8_f_2_missing physical_strength_9_f_1_missing physical_strength_9_f_2_missing punching_power_10_f_1_missing punching_power_10_f_2_missing punching_power_11_f_1_missing punching_power_11_f_2_missing punching_power_12_f_1_missing punching_power_12_f_2_missing punching_power_13_f_1_missing punching_power_13_f_2_missing punching_power_14_f_1_missing punching_power_14_f_2_missing punching_power_15_f_1_missing punching_power_15_f_2_missing punching_power_3_f_1_missing punching_power_3_f_2_missing punching_power_4_f_1_missing punching_power_4_f_2_missing punching_power_5_f_1_missing punching_power_5_f_2_missing punching_power_6_f_1_missing punching_power_7_f_1_missing punching_power_7_f_2_missing punching_power_8_f_1_missing punching_power_8_f_2_missing punching_power_9_f_1_missing punching_power_9_f_2_missing sapm_10_f_1_missing sapm_10_f_2_missing sapm_11_f_1_missing sapm_11_f_2_missing sapm_12_f_1_missing sapm_12_f_2_missing sapm_13_f_1_missing sapm_13_f_2_missing sapm_14_f_1_missing sapm_14_f_2_missing sapm_15_f_1_missing sapm_15_f_2_missing sapm_3_f_1_missing sapm_3_f_2_missing sapm_4_f_1_missing sapm_4_f_2_missing sapm_5_f_1_missing sapm_5_f_2_missing sapm_6_f_1_missing sapm_6_f_2_missing sapm_7_f_1_missing sapm_7_f_2_missing sapm_8_f_1_missing sapm_8_f_2_missing sapm_9_f_1_missing sapm_9_f_2_missing slpm_10_f_1_missing slpm_10_f_2_missing slpm_11_f_1_missing slpm_11_f_2_missing slpm_12_f_1_missing slpm_12_f_2_missing slpm_13_f_1_missing slpm_13_f_2_missing slpm_14_f_1_missing slpm_14_f_2_missing slpm_15_f_1_missing slpm_15_f_2_missing slpm_3_f_1_missing slpm_3_f_2_missing slpm_4_f_1_missing slpm_4_f_2_missing slpm_5_f_1_missing slpm_5_f_2_missing slpm_6_f_1_missing slpm_6_f_2_missing slpm_7_f_1_missing slpm_7_f_2_missing slpm_8_f_1_missing slpm_8_f_2_missing slpm_9_f_1_missing slpm_9_f_2_missing speed_10_f_1_missing speed_10_f_2_missing speed_11_f_1_missing speed_12_f_2_missing speed_13_f_1_missing speed_13_f_2_missing speed_14_f_1_missing speed_14_f_2_missing speed_15_f_1_missing speed_15_f_2_missing speed_3_f_1_missing speed_3_f_2_missing speed_4_f_1_missing speed_4_f_2_missing speed_5_f_1_missing speed_5_f_2_missing speed_6_f_1_missing speed_6_f_2_missing speed_7_f_1_missing speed_7_f_2_missing speed_8_f_1_missing speed_8_f_2_missing speed_9_f_1_missing speed_9_f_2_missing str_acc_10_f_1_missing str_acc_10_f_2_missing str_acc_11_f_1_missing str_acc_11_f_2_missing str_acc_12_f_1_missing str_acc_12_f_2_missing str_acc_13_f_1_missing str_acc_13_f_2_missing str_acc_14_f_1_missing str_acc_14_f_2_missing str_acc_15_f_1_missing str_acc_15_f_2_missing str_acc_3_f_1_missing str_acc_3_f_2_missing str_acc_4_f_1_missing str_acc_4_f_2_missing str_acc_5_f_1_missing str_acc_5_f_2_missing str_acc_6_f_1_missing str_acc_6_f_2_missing str_acc_7_f_1_missing str_acc_7_f_2_missing str_acc_8_f_1_missing str_acc_8_f_2_missing str_acc_9_f_1_missing str_acc_9_f_2_missing str_def_10_f_1_missing str_def_10_f_2_missing str_def_11_f_1_missing str_def_11_f_2_missing str_def_12_f_1_missing str_def_12_f_2_missing str_def_13_f_1_missing str_def_13_f_2_missing str_def_14_f_1_missing str_def_14_f_2_missing str_def_15_f_1_missing str_def_15_f_2_missing str_def_3_f_1_missing str_def_3_f_2_missing str_def_4_f_1_missing str_def_4_f_2_missing str_def_5_f_1_missing str_def_5_f_2_missing str_def_6_f_1_missing str_def_6_f_2_missing str_def_7_f_1_missing str_def_7_f_2_missing str_def_8_f_1_missing str_def_8_f_2_missing str_def_9_f_1_missing str_def_9_f_2_missing streak_10_f_1_missing streak_10_f_2_missing streak_11_f_1_missing streak_11_f_2_missing sub_avg_10_f_1_missing sub_avg_10_f_2_missing sub_avg_11_f_1_missing sub_avg_11_f_2_missing sub_avg_12_f_1_missing sub_avg_12_f_2_missing sub_avg_13_f_1_missing sub_avg_13_f_2_missing sub_avg_14_f_1_missing sub_avg_14_f_2_missing sub_avg_15_f_1_missing sub_avg_15_f_2_missing sub_avg_3_f_1_missing sub_avg_3_f_2_missing sub_avg_4_f_1_missing sub_avg_4_f_2_missing sub_avg_5_f_1_missing sub_avg_5_f_2_missing sub_avg_6_f_1_missing sub_avg_6_f_2_missing sub_avg_7_f_1_missing sub_avg_7_f_2_missing sub_avg_8_f_1_missing sub_avg_8_f_2_missing sub_avg_9_f_1_missing sub_avg_9_f_2_missing td_acc_10_f_1_missing td_acc_10_f_2_missing td_acc_11_f_1_missing td_acc_11_f_2_missing td_acc_12_f_1_missing td_acc_12_f_2_missing td_acc_13_f_1_missing td_acc_13_f_2_missing td_acc_14_f_1_missing td_acc_14_f_2_missing td_acc_15_f_1_missing td_acc_15_f_2_missing td_acc_3_f_1_missing td_acc_3_f_2_missing td_acc_4_f_1_missing td_acc_4_f_2_missing td_acc_5_f_1_missing td_acc_5_f_2_missing td_acc_6_f_1_missing td_acc_6_f_2_missing td_acc_7_f_1_missing td_acc_7_f_2_missing td_acc_8_f_1_missing td_acc_8_f_2_missing td_acc_9_f_1_missing td_acc_9_f_2_missing td_avg_10_f_1_missing td_avg_10_f_2_missing td_avg_11_f_1_missing td_avg_11_f_2_missing td_avg_12_f_1_missing td_avg_12_f_2_missing td_avg_13_f_1_missing td_avg_13_f_2_missing td_avg_14_f_1_missing td_avg_14_f_2_missing td_avg_15_f_1_missing td_avg_15_f_2_missing td_avg_3_f_1_missing td_avg_3_f_2_missing td_avg_4_f_1_missing td_avg_4_f_2_missing td_avg_5_f_1_missing td_avg_5_f_2_missing td_avg_6_f_1_missing td_avg_6_f_2_missing td_avg_7_f_1_missing td_avg_7_f_2_missing td_avg_8_f_1_missing td_avg_8_f_2_missing td_avg_9_f_1_missing td_avg_9_f_2_missing td_def_10_f_1_missing td_def_10_f_2_missing td_def_11_f_1_missing td_def_11_f_2_missing td_def_12_f_1_missing td_def_12_f_2_missing td_def_13_f_1_missing td_def_13_f_2_missing td_def_14_f_1_missing td_def_14_f_2_missing td_def_15_f_1_missing td_def_15_f_2_missing td_def_3_f_1_missing td_def_3_f_2_missing td_def_4_f_1_missing td_def_4_f_2_missing td_def_5_f_1_missing td_def_5_f_2_missing td_def_6_f_1_missing td_def_6_f_2_missing td_def_7_f_1_missing td_def_7_f_2_missing td_def_8_f_1_missing td_def_8_f_2_missing td_def_9_f_1_missing td_def_9_f_2_missing timing_10_f_1_missing timing_10_f_2_missing timing_11_f_1_missing timing_11_f_2_missing timing_12_f_1_missing timing_12_f_2_missing timing_13_f_1_missing timing_13_f_2_missing timing_14_f_1_missing timing_14_f_2_missing timing_15_f_1_missing timing_15_f_2_missing timing_3_f_1_missing timing_3_f_2_missing timing_4_f_1_missing timing_4_f_2_missing timing_5_f_1_missing timing_5_f_2_missing timing_6_f_1_missing timing_6_f_2_missing timing_7_f_1_missing timing_7_f_2_missing timing_8_f_1_missing timing_8_f_2_missing timing_9_f_1_missing timing_9_f_2_missing wins_10_f_1_missing wins_10_f_2_missing wins_11_f_1_missing wins_12_f_1_missing wins_12_f_2_missing wins_13_f_1_missing wins_14_f_1_missing wins_3_f_1_missing wins_3_f_2_missing wins_4_f_1_missing wins_4_f_2_missing wins_5_f_1_missing wins_5_f_2_missing wins_6_f_1_missing wins_6_f_2_missing wins_7_f_1_missing wins_7_f_2_missing wins_8_f_1_missing
feature_infos=[0:3662] [0:9] [0:11] [0:2326.5] [0:227] [0:438.33334350585938] [0:231] [0:442.33334350585938] [0:11] [0:30] [0:8] [0:3] [0:973] [0:1] [0:1] [0:2326.5] [0:36] [0:7] [0:10] [0:1942.1666259765625] [0:681] [0:1315] [0:693] [0:1327] [0:26] [0:54] [0:6] [0:2919] [0:198.19999694824219] [0:417.79998779296875] [0:206.39999389648438] [0:426] [0:11] [0:30] [0:8] [0:3] [0:832] [0:1] [0:1] [0:2326.5] [0:6.1999998092651367] [0:9.8000001907348633] [0:1942.1666259765625] [0:991] [0:2089] [0:1032] [0:2130] [0:37] [0:68] [0:16] [0:9] [0:4081] [0:175.60000610351562] [0:359.60000610351562] [0:198] [0:370.20001220703125] [0:11] [0:30] [0:8] [0:3] [0:832] [0:1] [0:1] [0:2326.5] [0:5] [0:8.8000001907348633] [0:1942.1666259765625] [0:1756] [0:3596] [0:1857] [0:3702] [0:61] [0:110] [0:23] [0:13] [0:6559] [0:171] [0:351] [0:198] [0:358] [0:11] [0:30] [0:8] [0:3] [0:832] [0:1] [0:1] [0:2326.5] [0:4.5333333015441895] [0:8.1999998092651367] [0:1997] [0:4149] [0:2140] [0:4303] [0:71] [0:153] [0:27] [0:13] [0:7786] [0:171] [0:351] [0:198] [0:358] [0:11] [0:30] [0:8] [0:3] [0:832] [0:1] [0:1] [0:2326.5] [0:4.3499999046325684] [0:8] [0:4927] [0:2524] [0:5129] [0:84] [0:198] [0:34] [0:13] [0:9355] [0:4180] [0:39] [0:8] [0:10] [0:2135] [0:259] [0:472] [0:269.66665649414062] [0:524] [0:11] [0:22] [0:9] [0:3] [0:917.66668701171875] [0:1] [0:1] [0:2135] [0:7] [0:10] [0:1928.3333740234375] [0:777] [0:1416] [0:809] [0:1457] [0:32] [0:62] [0:2753] [0:208] [0:456] [0:242] [0:524] [0:11] [0:22] [0:9] [0:3] [0:854] [0:1] [0:1] [0:2135] [0:6] [0:9.8000001907348633] [0:1928.3333740234375] [0:1040] [0:2047] [0:1098] [0:2091] [0:41] [0:86] [0:14] [0:3464] [0:189] [0:456] [0:242] [0:524] [0:11] [0:22] [0:9] [0:3] [0:854] [0:1] [0:1] [0:2135] [0:5] [0:9] [0:1928.3333740234375] [0:1883] [0:3795] [0:1997] [0:3923] [0:139] [0:22] [0:5836] [0:189] [0:456] [0:242] [0:524] [0:11] [0:22] [0:9] [0:3] [0:854] [0:1] [0:1] [0:4.5333333015441895] [0:8.1333332061767578] [0:1928.3333740234375] [0:2196] [0:4502] [0:2353] [0:4675] [0:63] [0:158] [0:29] [0:13] [0:7142] [0:189] [0:456] [0:242] [0:524] [0:11] [0:22] [0:9] [0:3] [0:854] [0:1] [0:1] [0:4.4000000953674316] [0:1928.3333740234375] [0:2495] [0:5138] [0:2696] [0:68] [0:195] [0:34] [0:13] [0:7672] [-162.66667175292969:154.66667175292969] [-414.66665649414062:337.33334350585938] [-193.33332824707031:178.66667175292969] [-394.66665649414062:335] [-10.333333015441895:10] [-22:30] [-8.3333330154418945:7.6666665077209473] [-3:3] [-764.66668701171875:725.66668701171875] [-0.80555558204650879:1] [-1:1] [-1971.3333740234375:1987.1666259765625] [-28:33.5] [-5:6] [-9:9] [-1768:1801.5555419921875] [-157.39999389648438:140.60000610351562] [-401.39999389648438:298.60000610351562] [-184.39999389648438:178.66667175292969] [-399.60000610351562:292.79998779296875] [-10.333333015441895:10] [-22:30] [-8.6000003814697266:7.8000001907348633] [-3:3] [-698:723] [-0.80555558204650879:1] [-1:1] [-1970.699951171875:1990.0999755859375] [-27:32.5] [-4.8000001907348633:5] [-8.6000003814697266:8.3999996185302734] [-1743.2667236328125:1732.6666259765625] [-157.39999389648438:138.5] [-401.39999389648438:258.71429443359375] [-176.69999694824219:178.66667175292969] [-399.60000610351562:249.28572082519531] [-10.333333015441895:10] [-22:30] [-8.6666669845581055:7.8000001907348633] [-3:3] [-698:723] [-0.80555558204650879:1] [-1:1] [-1793.0555419921875:1909.199951171875] [-24.5:30] [-4.3000001907348633:4.0999999046325684] [-8.1000003814697266:7.5] [-1718.5999755859375:1729.13330078125] [-157.39999389648438:138.5] [-401.39999389648438:258.71429443359375] [-173:178.66667175292969] [-399.60000610351562:249.28572082519531] [-10.333333015441895:10] [-22:30] [-8.6666669845581055:7.8000001907348633] [-3:3] [-698:723] [-0.80555558204650879:1] [-1:1] [-1793.0555419921875:1840.5714111328125] [-22.5:27.5] [-3.9333333969116211:3.6666667461395264] [-7.6333332061767578:6.4666666984558105] [-1705:1726.199951171875] [-157.39999389648438:138.5] [-401.39999389648438:258.71429443359375] [-172.76470947265625:178.66667175292969] [-10.333333015441895:10] [-22:30] [-8.6666669845581055:7.8000001907348633] [-3:3] [-698:723] [-0.80555558204650879:1] [-1:1] [-1793.0555419921875:1840.5714111328125] [-20:25] [-3.75:3.6363637447357178] [-7.4499998092651367:5.9000000953674316] [-1693.9832763671875:1725.4000244140625] [-4047:3298] [27:2176.5] [-37:38] [0:38] [-7:6] [0:7.5] [-8:10] [0:8.5] [-1971.3333740234375:1987.1666259765625] [22.333333969116211:2075.75] [0:0.92957746982574463] [0:0.88983052968978882] [0:0.9523809552192688] [0:0.92307692766189575] [1.0499999523162842:8.75] [1.0833333730697632:14] [-0.77966099977493286:0.85915493965148926] [-0.80879122018814087:0.87142854928970337] [0:0.60361069440841675] [0:0.5] [-12.939393997192383:7.6666665077209473] [-0.16683217883110046:0.20722134411334991] [0:15] [0:15] [-998:998] [1:999] [0:2] [1:5] [0:1] [0:1] [0:1] [0:1] [0:1] [0:1] [0:1] [0:1] [0:0.6875] [0:0.6875] [0:0.6875] [0:0.6875] [0:0.66666668653488159] [0:0.6875] [0:0.6875] [0:8400000000] [0:900000000] [0:8400000000] [0:900000000] [0:8400000000] [0:900000000] [0:8400000000] [0:900000000] [0:8400000000] [0:900000000] [0:8400000000] [0:900000000] [0:8400000000] [0:2100000000] [0:8400000000] [0:1575000064] [0:8400000000] [0:1260000000] [0:8400000000] [0:1050000000] [0:8400000000] [0:900000000] [0:8400000000] [0:900000000] [0:8400000000] [0:900000000] [0:175] [0:202] [0:175] [0:202] [0:175] [0:202] [0:175] [0:202] [0:175] [0:202] [0:175] [0:202] [0:226.66667175292969] [0:202] [0:191] [0:202] [0:175] [0:202] [0:175] [0:202] [0:175] [0:202] [0:175] [0:202] [0:175] [0:202] [0:1] [0:1] [0:1] [0:1] [0:1] [0:0.875] [0:0.875] [0:0.875] [0:0.875] [0:0.875] [0:0.875] [0:0.875] [0:0.875] [0:0.875] [0:0.83333331346511841] [0:58.739494323730469] [0:58.400001525878906] [0:58.739494323730469] [0:58.400001525878906] [0:58.739494323730469] [0:58.400001525878906] [0:58.739494323730469] [0:58.739494323730469] [0:58.400001525878906] [0:58.739494323730469] [0:58.739494323730469] [0:58.400001525878906] [0:58.739494323730469] [0:58.400001525878906] [0:58.739494323730469] [0:58.400001525878906] [0:58.739494323730469] [0:58.400001525878906] [0:58.739494323730469] [0:58.400001525878906] [0:58.739494323730469] [0:58.400001525878906] [0:58.739494323730469] [0:58.400001525878906] [-23:18] [-1:1] [-1:1] [-1:1] [-1:1] [-0.60000002384185791:0.6875] [-0.66666668653488159:0.6875] [-0.66666668653488159:0.6875] [-0.66666668653488159:0.6875] [-0.66666668653488159:0.6875] [-0.6875:0.6875] [-0.6875:0.66666668653488159] [-0.6875:0.66666668653488159] [-900000000:8400000000] [-900000000:8400000000] [-900000000:8400000000] [-900000000:8400000000] [-900000000:8400000000] [-900000000:8400000000] [-2100000000:8400000000] [-1575000064:8400000000] [-1260000000:8400000000] [-1050000000:8400000000] [-900000000:8400000000] [-139.5:175] [-139.5:175] [-139.5:175] [-139.5:175] [-139.5:175] [-139.5:175] [-139.5:190] [-139.5:175] [-139.5:175] [-139.5:175] [-139.5:175] [-139.5:175] [-1:1] [-1:1] [-1:1] [-0.875:0.875] [-0.83333331346511841:0.875] [-0.83333331346511841:0.83333331346511841] [-0.83333331346511841:0.875] [-55.666667938232422:58.00885009765625] [-55.666667938232422:58.00885009765625] [-55.666667938232422:58.00885009765625] [-55.666667938232422:58.00885009765625] [-55.666667938232422:58.00885009765625] [-55.666667938232422:58.00885009765625] [-55.666667938232422:58.00885009765625] [-55.666667938232422:58.00885009765625] [-55.666667938232422:58.00885009765625] [-55.666667938232422:58.00885009765625] [-55.666667938232422:58.00885009765625] [-55.666667938232422:58.00885009765625] [-55.666667938232422:58.00885009765625] [-0.72588831186294556:0.72588831186294556] [-0.72588831186294556:0.72588831186294556] [-1:1] [-1:1] [-385714272:3600000000] [-385714272:3600000000] [-385714272:3600000000] [-385714272:3600000000] [-385714272:3600000000] [-385714272:3600000000] [-900000000:3600000000] [-675000000:3600000000] [-540000000:3600000000] [-450000000:3600000000] [-385714272:3600000000] [-385714272:3600000000] [-385714272:3600000000] [-27:37] [-180000000:34285716] [-180000000:34285716] [-180000000:34285716] [-180000000:34285716] [-180000000:34285716] [-180000000:34285716] [-180000000:80000000] [-180000000:60000000] [-180000000:48000000] [-180000000:40000000] [-180000000:34285716] [-180000000:34285716] [-180000000:34285716] [-1:1] [-1:1] [-1:1] [-0.8225981593132019:0.89999997615814209] [-0.65359479188919067:0.65359479188919067] [-0.65359479188919067:0.65359479188919067] [-0.65359479188919067:0.65359479188919067] [-0.6716417670249939:0.6716417670249939] [-0.65359479188919067:0.6716417670249939] [-0.65359479188919067:0.65359479188919067] [-0.65359479188919067:0.65359479188919067] [-1:1] [-1:1] [-1:1] [-1:1] [-1:1] [-1:1] [-1:1] [-1:1] [-1:1] [-1:1] [-1:1] [-1:1] [-1:1] [-1:1] [-1:1] [-0.75:0.75] [-0.75:0.75] [-0.75:0.75] [-0.75:0.75] [-0.75:0.75] [-12.939393997192383:7.6666665077209473] [-11.776190757751465:12.164006233215332] [-11.776190757751465:12.164006233215332] [-11.776190757751465:12.164006233215332] [-11.776190757751465:12.164006233215332] [-11.776190757751465:12.164006233215332] [-11.776190757751465:12.164006233215332] [-11.776190757751465:12.164006233215332] [-11.776190757751465:12.164006233215332] [-11.776190757751465:12.164006233215332] [-11.776190757751465:12.164006233215332] [-11.776190757751465:12.164006233215332] [-11.776190757751465:12.164006233215332] [-11.776190757751465:12.164006233215332] [-0.79666668176651001:0.625] [-0.79666668176651001:0.625] [-0.79666668176651001:0.625] [-0.79666668176651001:0.625] [-0.79666668176651001:0.625] [-0.79666668176651001:0.625] [-0.81111109256744385:0.625] [-0.84166663885116577:0.625] [-0.86000001430511475:0.625] [-0.87222224473953247:0.625] [-0.8095238208770752:0.625] [-0.82499998807907104:0.625] [-0.83703702688217163:0.625] [-14:7] [-37.852630615234375:72] [-37.852630615234375:72] [-37.852630615234375:72] [-37.852630615234375:72] [-37.852630615234375:72] [-37.852630615234375:72] [-37.741519927978516:72] [-37.852630615234375:72] [-37.852630615234375:72] [-37.852630615234375:72] [-37.852630615234375:72] [-37.852630615234375:72] [-37.852630615234375:72] [-33.351043701171875:144] [-33.351043701171875:144] [-33.351043701171875:144] [-33.351043701171875:144] [-33.351043701171875:144] [-33.351043701171875:144] [-33.351043701171875:144] [-33.351043701171875:144] [-33.351043701171875:144] [-33.351043701171875:144] [-33.351043701171875:144] [-33.351043701171875:144] [-33.351043701171875:144] [-685714304:7800000000] [-685714304:7800000000] [-685714304:7800000000] [-685714304:7800000000] [-685714304:7800000000] [-685714304:7800000000] [-1600000000:7800000000] [-1200000000:7800000000] [-960000000:7800000000] [-800000000:7800000000] [-685714304:7800000000] [-685714304:7800000000] [-685714304:7800000000] [-1:1] [-1:1] [-1:1] [-1:1] [-1:1] [-1:1] [-1:1] [-1:1] [-1:1] [-1:1] [-1:1] [-1:1] [-1:1] [-1:1] [-1:1] [-1:1] [-1:1] [-1:1] [-1:1] [-1:1] [-1:1] [-1:1] [-1:1] [-1:1] [-1:1] [-1:1] [-3.8709676265716553:3.75] [-3.8709676265716553:3.75] [-3.8709676265716553:3.75] [-3.8709676265716553:3.75] [-3.8709676265716553:3.75] [-3.8709676265716553:3.75] [-3.8709676265716553:3.75] [-3.8709676265716553:3.75] [-3.8709676265716553:3.75] [-3.8709676265716553:3.75] [-3.8709676265716553:3.75] [-3.8709676265716553:3.75] [-3.8709676265716553:3.75] [-1:1] [-1:1] [-1:1] [-1:1] [-1:1] [-1:1] [-1:1] [-1:1] [-1:1] [-1:1] [-1:1] [-1:1] [-1:1] [-3:36] [-3:36] [-3:36] [-3:36] [-3:36] [-3:36] [-3:36] [-3:36] [-3:36] [-3:36] [-3:36] [-3:36] [-3:36] [-1:1] [-1:1] [-1:1] [-1:1] [-1:1] [-1:1] [-1:1] [-1:1] [-1:1] [-1:1] [-1:1] [-1:1] [-1:1] [-0.80000001192092896:0.80000001192092896] [-0.80000001192092896:0.80000001192092896] [-0.80000001192092896:0.80000001192092896] [-0.80000001192092896:0.80000001192092896] [-0.80000001192092896:0.80000001192092896] [-0.80000001192092896:0.80000001192092896] [-0.80000001192092896:0.80000001192092896] [-0.80000001192092896:0.80000001192092896] [-0.80000001192092896:0.80000001192092896] [-0.80000001192092896:0.80000001192092896] [-0.80000001192092896:0.80000001192092896] [-0.80000001192092896:0.80000001192092896] [-0.80000001192092896:0.80000001192092896] [0:0.72588831186294556] [0:1] [0:1] [0:1] [0:1] [0:1] [0:1] [0:1] [0:3600000000] [0:385714272] [0:3600000000] [0:385714272] [0:3600000000] [0:385714272] [0:3600000000] [0:385714272] [0:3600000000] [0:385714272] [0:3600000000] [0:385714272] [0:3600000000] [0:900000000] [0:3600000000] [0:675000000] [0:3600000000] [0:540000000] [0:3600000000] [0:450000000] [0:3600000000] [0:385714272] [0:3600000000] [0:385714272] [0:3600000000] [0:385714272] [18:47] [0:0.71153843402862549] [0:439] [0:38] [0:15.479999542236328] [0:9.3100004196166992] [0:0.82999998331069946] [0:0.8399999737739563] [0:12.100000381469727] [0:1] [0:11.109999656677246] [0:1] [0:9] [152.39999389648438:210.82000732421875] [0:53] [0:3] [147.32000732421875:213.36000061035156] [0:253] [115:345] [0:1] [0:135] [0:0.91428571939468384] [0:86] [0:0.72602736949920654] [0:274] [1.1818181276321411:27.75] [1.0499999523162842:8.75] [0:15] [0:0.80701756477355957] [1.2702702283859253:41] [0:1] [0:16] [0:0.92193311452865601] [0:447] [18:51] [0:100] [0:92] [0:1] [0:36] [0:22.5] [0:10.220000267028809] [0:1] [0:1] [0:16.399999618530273] [0:1] [0:13.949999809265137] [0:1] [0:9] [152.39999389648438:210.82000732421875] [0:53] [147.32000732421875:213.36000061035156] [0:253] [115:770] [0:1] [0:119] [0:0.80898874998092651] [0:96] [0:0.65359479188919067] [0:173] [1.3636363744735718:33] [1.0833333730697632:14] [0:15] [0:0.73333334922790527] [0:199] [0:0.73333334922790527] [0:199] [1.0800000429153442:48.849998474121094] [0:0.89005237817764282] [0:497] [0:336] [1:39] [0:5] [0:6] [0:6] [0:6] [0:6] [0:6] [0:6] [0:6] [0:6] [0:6] [0:6] [0:3] [0:3] [0:3] [0:3] [0:4] [0:4] [0:4] [0:5] [0:5] [0:6] [0:7] [0:8] [0:8] [0:9] [0:10] [0:10] [0:10] [0:10] [0:4] [0:6] [0:6] [0:7] [0:7] [0:7] [-180000000:1] [-34285712:1] [-180000000:1] [-34285712:1] [-180000000:1] [-34285712:1] [-180000000:1] [-34285712:1] [-180000000:1] [-34285712:1] [-180000000:1] [-180000000:1] [-80000000:1] [-180000000:1] [-60000000:1] [-180000000:1] [-48000000:1] [-180000000:1] [-40000000:1] [-180000000:1] [-34285712:1] [-180000000:1] [-34285712:1] [-180000000:1] [-34285712:1] [0:1] [0:1] [0:1] [0:1] [0:1] [0:0.91428571939468384] [0:0.65359479188919067] [0:0.67880314588546753] [0:0.67880314588546753] [0:1] [0:1] [0:1] [0:1] [0:1] [0:1] [0:1] [0:1] [0:1] [0:1] [0:1] [0:1] [0:1] [0:0.75] [0:0.75] [0:0.75] [0:7] [0:5] [0:5] [0:5] [0:5] [0:9] [0:8] [0:9] [0:8] [0:10] [0:9] [0:10] [0:9] [0:10] [0:9] [0:3] [0:3] [0:4] [0:4] [0:5] [0:5] [0:5] [0:7] [0:6] [0:7] [0:8] [0:12.447898864746094] [0:12.380000114440918] [0:12.447898864746094] [0:12.380000114440918] [0:12.447898864746094] [0:12.380000114440918] [0:12.447898864746094] [0:12.380000114440918] [0:12.447898864746094] [0:12.380000114440918] [0:12.447898864746094] [0:12.380000114440918] [0:12.447898864746094] [0:12.380000114440918] [0:12.447898864746094] [0:12.380000114440918] [0:12.447898864746094] [0:12.380000114440918] [0:12.447898864746094] [0:12.380000114440918] [0:12.447898864746094] [0:12.380000114440918] [0:12.447898864746094] [0:12.380000114440918] [0:12.447898864746094] [0:12.380000114440918] [0:0.66666668653488159] [0:0.93333333730697632] [0:0.66666668653488159] [0:0.93333333730697632] [0:0.66666668653488159] [0:0.93333333730697632] [0:0.66666668653488159] [0:0.93333333730697632] [0:0.66666668653488159] [0:0.93333333730697632] [0:0.66666668653488159] [0:0.93333333730697632] [0:0.67391306161880493] [0:0.93333333730697632] [0:0.66666668653488159] [0:0.93333333730697632] [0:0.66666668653488159] [0:0.93333333730697632] [0:0.66666668653488159] [0:0.66666668653488159] [0:0.93333333730697632] [0:0.66666668653488159] [0:0.93333333730697632] [0:0.66666668653488159] [0:0.93333333730697632] [0:72] [0:41.052631378173828] [0:72] [0:41.052631378173828] [0:72] [0:41.052631378173828] [0:72] [0:41.052631378173828] [0:72] [0:41.052631378173828] [0:72] [0:41.052631378173828] [0:72] [0:41.052631378173828] [0:72] [0:41.052631378173828] [0:72] [0:41.052631378173828] [0:72] [0:41.052631378173828] [0:72] [0:41.052631378173828] [0:72] [0:41.052631378173828] [0:72] [0:41.052631378173828] [0:144] [0:40.645160675048828] [0:144] [0:40.645160675048828] [0:144] [0:40.645160675048828] [0:144] [0:40.645160675048828] [0:144] [0:40.645160675048828] [0:144] [0:40.645160675048828] [0:144] [0:40.645160675048828] [0:144] [0:40.645160675048828] [0:144] [0:40.645160675048828] [0:144] [0:40.645160675048828] [0:144] [0:40.645160675048828] [0:144] [0:40.645160675048828] [0:144] [0:40.645160675048828] [-3.0772707462310791:7800000000] [-5.628654956817627:685714304] [-3.0772707462310791:7800000000] [-5.628654956817627:685714304] [-3.0772707462310791:7800000000] [-5.628654956817627:685714304] [-3.0772707462310791:7800000000] [-5.628654956817627:685714304] [-3.0772707462310791:7800000000] [-5.628654956817627:685714304] [-3.0772707462310791:7800000000] [-5.628654956817627:1600000000] [-3.0772707462310791:7800000000] [-5.628654956817627:1200000000] [-3.0772707462310791:7800000000] [-5.628654956817627:960000000] [-3.0772707462310791:7800000000] [-5.628654956817627:800000000] [-3.0772707462310791:7800000000] [-5.628654956817627:685714304] [-3.0772707462310791:7800000000] [-5.628654956817627:685714304] [-3.0772707462310791:7800000000] [-5.628654956817627:685714304] [0:1] [0:1] [0:1] [0:1] [0:1] [0:1] [0:1] [0:1] [0:1] [0:1] [0:1] [0:1] [0:1] [0:1] [0:1] [0:1] [0:1] [0:1] [0:1] [0:1] [0:1] [0:1] [0:1] [0:1] [0:1] [0:1] [0:1] [0:1] [0:1] [0:1] [0:1] [0:1] [0:1] [0:1] [0:1] [0:1] [0:1] [0:1] [0:1] [0:1] [0:1] [0:1] [0:1] [0:1] [0:1] [0:1] [0:1] [0:1] [0:1] [0:1] [0:1] [0:1] [0:10] [0:10] [0:11] [0:11] [0:3.75] [0:3.8709676265716553] [0:3.75] [0:3.8709676265716553] [0:3.75] [0:3.8709676265716553] [0:3.75] [0:3.8709676265716553] [0:3.75] [0:3.8709676265716553] [0:3.75] [0:3.8709676265716553] [0:3.75] [0:3.8709676265716553] [0:3.75] [0:3.8709676265716553] [0:3.75] [0:3.8709676265716553] [0:3.75] [0:3.8709676265716553] [0:3.75] [0:3.8709676265716553] [0:3.75] [0:3.8709676265716553] [0:3.75] [0:3.8709676265716553] [0:1] [0:1] [0:1] [0:1] [0:1] [0:1] [0:1] [0:1] [0:1] [0:1] [0:1] [0:1] [0:1] [0:1] [0:1] [0:1] [0:1] [0:1] [0:1] [0:1] [0:1] [0:1] [0:1] [0:1] [0:1] [0:1] [0:36] [0:3] [0:36] [0:3] [0:36] [0:3] [0:36] [0:3] [0:36] [0:3] [0:36] [0:3] [0:36] [0:3] [0:36] [0:3] [0:36] [0:3] [0:36] [0:3] [0:36] [0:3] [0:36] [0:3] [0:36] [0:3] [0:1] [0:1] [0:1] [0:1] [0:1] [0:1] [0:1] [0:1] [0:1] [0:1] [0:1] [0:1] [0:1] [0:1] [0:1] [0:1] [0:1] [0:1] [0:1] [0:1] [0:1] [0:1] [0:1] [0:1] [0:1] [0:1] [0:0.80000001192092896] [0:0.80000001192092896] [0:0.80000001192092896] [0:0.80000001192092896] [0:0.80000001192092896] [0:0.80000001192092896] [0:0.80000001192092896] [0:0.80000001192092896] [0:0.80000001192092896] [0:0.80000001192092896] [0:0.80000001192092896] [0:0.80000001192092896] [0:0.80000001192092896] [0:0.80000001192092896] [0:0.80000001192092896] [0:0.80000001192092896] [0:0.80000001192092896] [0:0.80000001192092896] [0:0.80000001192092896] [0:0.80000001192092896] [0:0.80000001192092896] [0:0.80000001192092896] [0:0.80000001192092896] [0:0.80000001192092896] [0:0.80000001192092896] [0:0.80000001192092896] [0:10] [0:10] [0:11] [0:12] [0:12] [0:13] [0:14] [0:3] [0:3] [0:4] [0:4] [0:5] [0:5] [0:6] [0:6] [0:7] [0:7] [0:8] none none none none [0:1] [0:1] [0:1] [0:1] [0:1] [0:1] [0:1] [0:1] [0:1] [0:1] [0:1] [0:1] [0:1] [0:1] [0:1] [0:1] [0:1] [0:1] [0:1] [0:1] [0:1] [0:1] [0:1] [0:1] [0:1] [0:1] [0:1] [0:1] [0:1] [0:1] [0:1] [0:1] [0:1] [0:1] [0:1] [0:1] [0:1] [0:1] [0:1] [0:1] [0:1] [0:1] [0:1] [0:1] [0:1] [0:1] [0:1] [0:1] [0:1] [0:1] [0:1] [0:1] [0:1] [0:1] [0:1] [0:1] [0:1] [0:1] [0:1] [0:1] [0:1] [0:1] [0:1] [0:1] [0:1] [0:1] [0:1] [0:1] [0:1] [0:1] [0:1] [0:1] [0:1] [0:1] [0:1] [0:1] [0:1] [0:1] [0:1] [0:1] [0:1] [0:1] [0:1] [0:1] [0:1] [0:1] [0:1] [0:1] [0:1] [0:1] [0:1] [0:1] [0:1] [0:1] [0:1] [0:1] [0:1] [0:1] [0:1] [0:1] [0:1] [0:1] [0:1] [0:1] [0:1] [0:1] [0:1] [0:1] [0:1] [0:1] [0:1] [0:1] [0:1] [0:1] [0:1] [0:1] [0:1] none none none none none [0:1] [0:1] [0:1] [0:1] [0:1] [0:1] [0:1] [0:1] [0:1] [0:1] [0:1] [0:1] [0:1] [0:1] [0:1] [0:1] [0:1] [0:1] [0:1] [0:1] [0:1] [0:1] [0:1] [0:1] [0:1] [0:1] [0:1] [0:1] [0:1] [0:1] [0:1] [0:1] [0:1] [0:1] [0:1] [0:1] [0:1] [0:1] [0:1] [0:1] [0:1] [0:1] [0:1] [0:1] [0:1] [0:1] [0:1] [0:1] [0:1] [0:1] [0:1] [0:1] [0:1] [0:1] [0:1] [0:1] [0:1] [0:1] [0:1] [0:1] [0:1] [0:1] [0:1] [0:1] [0:1] [0:1] [0:1] [0:1] [0:1] [0:1] [0:1] [0:1] [0:1] [0:1] [0:1] [0:1] [0:1] [0:1] [0:1] [0:1] [0:1] [0:1] [0:1] [0:1] [0:1] [0:1] [0:1] [0:1] [0:1] [0:1] [0:1] [0:1] [0:1] [0:1] [0:1] [0:1] [0:1] [0:1] [0:1] [0:1] [0:1] [0:1] [0:1] [0:1] [0:1] [0:1] [0:1] [0:1] [0:1] [0:1] [0:1] [0:1] [0:1] [0:1] [0:1] [0:1] [0:1] [0:1] [0:1] [0:1] [0:1] [0:1] [0:1] [0:1] [0:1] [0:1] [0:1] [0:1] [0:1] [0:1] [0:1] [0:1] [0:1] [0:1] [0:1] [0:1] [0:1] [0:1] [0:1] [0:1] [0:1] [0:1] [0:1] [0:1] [0:1] [0:1] [0:1] [0:1] [0:1] [0:1] [0:1] [0:1] [0:1] [0:1] [0:1] [0:1] [0:1] [0:1] [0:1] [0:1] [0:1] [0:1] [0:1] [0:1] [0:1] [0:1] [0:1] [0:1] [0:1] [0:1] [0:1] [0:1] [0:1] [0:1] [0:1] [0:1] [0:1] [0:1] [0:1] [0:1] [0:1] [0:1] [0:1] [0:1] [0:1] [0:1] [0:1] [0:1] [0:1] [0:1] none none none none none none none none none none [0:1] [0:1] [0:1] [0:1] [0:1] [0:1] [0:1] [0:1] [0:1] [0:1] [0:1] [0:1] [0:1] [0:1] none none none none none none none none none none none none none none none none none none none none none none none none none none none none none none none none none none none none none none none none none none none none none none none none none none none none none none none none none none none none none none none none none none none none none none none none none none none none none none none none none none none none none none none none none none none none none none none none none none none none none none none none none none none none none none [0:1] none none none none none none none none none none none none none none none none none none none none none none none none none none none none none none none none none none none none none none none none none none none none none none none none none none none none none none none none none none none none none none none none none none none none none none none none none none none none none none none none none none none none none none none none none none none none none none none none none none none none none none none none none none none none none none none none none none none none none [0:1] none none none none none none none none none none none none none none none none none none none none none none none none none none [0:1] none none none none none none none none none none none none none none none none none none none none none none none none none none none none none none none none none none none none none none none none none none none none none none none none none none none none none none none none none none none none none none none none none none none none none none none none none none none none none none none none none none none none none none none none none none none none none none none none none none none none none none none none none none none none none none none none none none none none none none none none none none none none none none none none none none none none none none none none none none none none none none none none none none none none none none none none none none none none none none none none none none none none none [0:1] [0:1] none none none none none none none none none none none none [0:1] [0:1] none none [0:1] [0:1] [0:1] [0:1] [0:1] [0:1] [0:1] [0:1] [0:1] [0:1] [0:1] [0:1] [0:1] [0:1] [0:1] [0:1] [0:1] [0:1] [0:1] none none none none none none none none none none none none [0:1] none none [0:1] [0:1] [0:1] [0:1] [0:1] [0:1] [0:1] [0:1] [0:1] [0:1] [0:1] [0:1] [0:1] [0:1] [0:1] [0:1] [0:1] none none none none none none none none none none none none none none none none none none none none none none none none none none none none none none none none none none none none none none none none none none none none none none none none none none none none none none none none none none none none none none none none none none none none none none none none none none none none none none none none none none none none none none none none none none none none none none none none none none none none none none none none none none none none none none none none none none none none none none none none none none none none none none none none none none none none none none none none none none none none none none none none none none none none none none none none none none none none none none none none none none none none none none none none none none none none none none none none none none none none none none none none none none none none none none none none none none none none none none none none none none none none none none none none none none none none none none none none none none none none none none none none none none none none none none none none none none none none none none none none none none none none none none none none none none none none none none none none none none none none none none none none none none none none none none none none none none none none none none none none none none none none none none none none none none none none none none none none none none none none none none none none none none none none none none none none none none none none none none none none none none none none none none none none none none none none none none none none none none none none none none none none none none none none none none none none none none none none none none none none none none none none none none none none none none none none none none none none none none none none none none none none none none none none none none none none none none none none none none none none none none none none none none none none none none none none none none none none none none none none none none none none none none none none none none none none none none none none none none none none none none none
tree_sizes=970 988 988 885 882 989 881 981 983 784 965 882 974 783 780 878 986 787 882 779 860 776 782 965 962 991 962 989 886 989 865 885 860 886 849 766 976 961 968 969 744 743 998 980 884 989 987 859 884 882 776 975 881 963 758 747 984 861 746 994 650 990 666 966 676 672 969 962 968 967 862 976 983 990 885 751 880 984 979 998 886 780 982 883 967 991 969 971 983 868 866 863 877 974 862 877 870 983 992 874 865 995 886 674 986 963 864 673 773 866 738 652 883 780 993 952 878 887 977 889 889 992 988 998 892 973 678 568 882 566 676 865 757 779 670 853 964 672 991 973 988 979 990 969 883 859 968 879 991 844 883 864 762 865 876 992 676 672 872 569 670 889 882 881 781 994 672 863 949 674 862 673 992 779 880 670 569 881 884 673 813 877 651 775 974 849 882 871 883 561 991 677 655 994 676 980 865 682 655 880 572 891 678 846 962 989 998 959 890 979 991 671 967 671 886 973 966 641 989 953 674 995 972 981 977 740 965 971 885 985 976 862 985 969 778 649 973 970 945 875 882 861 972 886 877 886 756 887 843 889 991 864 993 865 956 755 978 782 773 782 669 678 776 660 563 777 565 675 567 567 885 648 645 880 671 674 973 947 673 994 655 965 954 984 966 987 769 890 657 672 670 999 675 563 995 886 990 990 997 680 972 995 990 761 882 858 676 989 681 993 777 674 676 868 782 970 675 881 887 867 992 840 890 981 888 776 885 870 777 994 970 676 968 891 560 981 858 569 774 739 740 879 868 985 985 883 855 999 977 990 969 973 974 890 956 553 969 776 828 958 773 966 887 974 861 888 876 882 647 859 882 882 673 866 652 886 649 780 993 977 675 671 675 989 765 780 756 730 989 747 1004 978 976 677 566 980 568 991 972 677 761 683 995 670 736 846 988 676 972 846 957 978 968 886 974 992 975 997 984 949 971 970

Tree=0
num_leaves=8
num_cat=0
split_feature=327 327 326 811 811 2083 811
split_gain=833.31 91.4408 90.8427 42.0226 27.0345 22.5742 21.3092
threshold=0.36368709802627569 0.26754517853260046 0.40272982418537145 18.500000000000004 12.500000000000002 1.0000000180025095e-35 13.500000000000002
decision_type=2 2 2 2 2 2 2
left_child=1 5 4 -4 -2 -1 -3
right_child=2 6 3 -5 -6 -7 -8
leaf_value=0.74363147260100004 0.6305195333458613 0.72653696452386085 0.65627235070719014 0.60734580677725747 0.56203781578982082 0.78248746107387002 0.676998880072885
leaf_weight=296.90942198038101 42.415631711483002 64.293168067932129 239.98317942023277 141.75750598311424 141.75750598311424 115.63840645551682 115.41516628861427
leaf_count=1330 190 288 1075 635 635 518 517
internal_value=0.679308 0.736625 0.617882 0.637821 0.577201 0.75482 0.694297
internal_weight=0 592.256 565.914 381.741 184.173 412.548 179.708
internal_count=5188 2653 2535 1710 825 1848 805
is_linear=0
shrinkage=1


Tree=1
num_leaves=8
num_cat=0
split_feature=329 327 328 800 811 811 811
split_gain=727.719 81.5562 74.9489 37.8238 36.6563 21.8712 17.9075
threshold=0.37383307516574865 0.26754517853260046 0.41841736435890203 3.3950001001358037 13.500000000000002 11.500000000000002 13.500000000000002
decision_type=2 2 2 2 2 2 2
left_child=1 3 5 -1 -4 -2 -3
right_child=2 6 4 -5 -6 -7 -8
leaf_value=0.085296894083113792 -0.036650259834220787 0.044750103018664729 -0.0057539240830068268 0.034264654019080722 -0.052697304880563962 -0.10181925615883484 -0.0011612877223188185
leaf_weight=298.34467776119709 35.795019090175629 62.177472412586212 127.26873335242271 102.99769328534603 251.27824790775776 165.62632454931736 113.94329741597176
leaf_count=1373 158 283 566 472 1108 718 510
internal_value=0 0.0549923 -0.0559799 0.0724635 -0.0371678 -0.0907634 0.014612
internal_weight=0 577.463 579.968 401.342 378.547 201.421 176.121
internal_count=5188 2638 2550 1845 1674 876 793
is_linear=0
shrinkage=0.07


Tree=2
num_leaves=8
num_cat=0
split_feature=329 327 327 800 811 777 811
split_gain=631.863 74.6508 63.692 35.2705 28.2804 26.2217 15.8734
threshold=0.37383307516574865 0.26754517853260046 0.52237814664840709 3.3950001001358037 12.500000000000002 10.500000000000002 13.500000000000002
decision_type=2 2 2 2 2 2 2
left_child=1 3 5 -1 -4 -2 -3
right_child=2 6 4 -5 -6 -7 -8
leaf_value=0.082040222786601724 -0.079714949969874105 0.042329643085701724 -0.03370631002746504 0.032288413439478358 -0.086004709609089902 -0.017761184215753286 -0.0010798435058726184
leaf_weight=288.83223505318165 40.148247838020325 61.189646109938622 73.751623019576073 101.72113499045372 230.73549772799015 244.19880166649818 113.98641102015972
leaf_count=1373 177 283 323 472 983 1067 510
internal_value=0 0.0522765 -0.0512778 0.0693505 -0.0736827 -0.0269116 0.0136427
internal_weight=0 565.729 588.834 390.553 304.487 284.347 175.176
internal_count=5188 2638 2550 1845 1306 1244 793
is_linear=0
shrinkage=0.07


Tree=3
num_leaves=7
num_cat=0
split_feature=329 2083 327 326 800 800
split_gain=549.889 77.2679 70.4039 52.2716 32.4375 17.7801
threshold=0.37383307516574865 1.0000000180025095e-35 0.16857640445232394 0.40272982418537145 4.1649999618530282 2.6550000905990605
decision_type=2 2 2 2 2 2
left_child=2 3 4 -2 -1 -4
right_child=1 -3 5 -5 -6 -7
leaf_value=0.084116660764092258 -0.08222648549556312 0.081392524222046098 0.051637674604128304 -0.036635945717453273 0.00019861738032520495 0.013023480543700906
leaf_weight=238.57377564907074 192.03143884241581 21.244984209537506 88.524835169315338 382.94550614058971 27.24506214261055 199.55231194198132
leaf_count=1168 802 92 418 1656 128 924
internal_value=0 -0.0471079 0.0497284 -0.0520591 0.0758575 0.0252459
internal_weight=0 596.222 553.896 574.977 265.819 288.077
internal_count=5188 2550 2638 2458 1296 1342
is_linear=0
shrinkage=0.07


Tree=4
num_leaves=7
num_cat=0
split_feature=329 2083 326 329 812 811
split_gain=482.222 77.3684 68.9727 35.0012 18.7881 17.8045
threshold=0.3252247422933579 1.0000000180025095e-35 0.47762183845043188 0.17316342145204547 150.00000000000003 16.500000000000004
decision_type=2 2 2 2 2 2
left_child=3 2 -2 4 -1 -5
right_child=1 -3 -4 5 -6 -7
leaf_value=0.025295985362626273 -0.066447141525646805 0.08165746316804301 -0.020728086808247389 0.052491202909771634 0.081348978654713217 0.0090237637724145045
leaf_weight=39.95353165268898 305.14553585648537 25.016514405608177 360.7724399715662 104.86367531120777 216.31524150073528 92.672095283865929
leaf_count=197 1270 112 1574 504 1095 436
internal_value=0 -0.037195 -0.0418357 0.0556501 0.0730022 0.0325985
internal_weight=0 690.934 665.918 453.805 256.269 197.536
internal_count=5188 2956 2844 2232 1292 940
is_linear=0
shrinkage=0.07


Tree=5
num_leaves=8
num_cat=0
split_feature=329 330 800 811 777 327 1011
split_gain=423.085 62.8646 47.1869 27.6508 26.0119 19.3683 18.2077
threshold=0.3252247422933579 1.9478885531425478 3.3149999380111699 12.500000000000002 10.500000000000002 0.16857640445232394 1.8322097659111025
decision_type=2 2 2 2 2 2 2
left_child=2 4 5 -3 -2 -1 -4
right_child=1 3 6 -5 -6 -7 -8
leaf_value=0.083099162014639766 -0.063034698736707917 -0.018561074981868809 0.058012933153561395 -0.066643000481770812 -0.0053251821608196496 0.043383542845808885 0.0024303128182312592
leaf_weight=191.00288251042366 44.301341578364372 82.800087675452232 42.047271251678467 264.55521422624588 304.23123016953468 107.48423436284065 102.07799272239208
leaf_count=1013 193 351 204 1086 1326 527 488
internal_value=0 -0.0343283 0.0531765 -0.0554666 -0.0129726 0.0691646 0.019363
internal_weight=0 695.888 442.612 347.355 348.533 298.487 144.125
internal_count=5188 2956 2232 1437 1519 1540 692
is_linear=0
shrinkage=0.07


Tree=6
num_leaves=7
num_cat=0
split_feature=329 331 2083 800 766 330
split_gain=384.041 56.9925 54.2317 29.689 28.41 10.6021
threshold=0.3838785737752915 1.5730705857276919 1.0000000180025095e-35 4.0350000858306894 0.37500000000000006 3.9250000715255742
decision_type=2 2 2 2 2 2
left_child=2 5 3 -1 -3 -2
right_child=1 4 -4 -5 -6 -7
leaf_value=0.040168199689482938 -0.062756562177238379 -0.068040450225639482 0.086833287907041687 -0.002931865067485179 -0.016609216446300243 -0.11094493440735138
leaf_weight=337.79464623332024 146.6902901083231 64.289178013801575 106.48677307367325 97.034544393420219 340.95703233778477 35.28820775449276
leaf_count=1690 596 271 582 456 1441 143
internal_value=0 -0.0400261 0.0416801 0.0303546 -0.0250408 -0.0727939
internal_weight=0 587.225 541.316 434.829 405.246 181.978
internal_count=5179 2451 2728 2146 1712 739
is_linear=0
shrinkage=0.07


Tree=7
num_leaves=8
num_cat=0
split_feature=329 777 800 811 777 329 769
split_gain=335.271 55.3358 52.0292 47.4153 21.7108 17.3427 4.17964
threshold=0.3838785737752915 9.5000000000000018 2.745000004768372 11.500000000000002 14.500000000000002 0.17937580496072772 0.20499999821186068
decision_type=2 2 2 2 2 2 2
left_child=2 6 5 -3 -4 -1 -2
right_child=1 3 4 -5 -6 -7 -8
leaf_value=0.07977306455138343 -0.13154830884293833 0.014634429654068373 -0.011258488422617076 -0.039139797993917688 0.030971275584652871 0.039088890798755563 -0.078744859061292402
leaf_weight=143.56282196938992 21.175689309835434 96.034865185618401 79.725624024868011 427.60861314833164 207.87357132136822 99.52325539290905 45.698067501187325
leaf_count=824 87 409 390 1766 1018 496 189
internal_value=0 -0.0370492 0.0395877 -0.0291069 0.0189608 0.0635637 -0.097419
internal_weight=0 590.517 530.685 523.643 287.599 243.086 66.8738
internal_count=5179 2451 2728 2175 1408 1320 276
is_linear=0
shrinkage=0.07


Tree=8
num_leaves=8
num_cat=0
split_feature=327 331 800 2083 327 1011 777
split_gain=293.173 61.3565 42.8045 38.102 19.2822 18.2541 12.7461
threshold=0.32616342604160314 1.5730705857276919 3.304999947547913 1.0000000180025095e-35 0.16857640445232394 1.8322097659111025 11.500000000000002
decision_type=2 2 2 2 2 2 2
left_child=2 6 4 -3 -1 -4 -2
right_child=1 3 5 -5 -6 -7 -8
leaf_value=0.075742270192577413 -0.10257118052728598 -0.020537149906913337 0.052068292375895477 0.076931277708999712 0.035986881162339876 -0.000572753653429134 -0.053110544957807419
leaf_weight=170.14454689621925 38.642457619309425 475.08698102831841 43.346864998340607 19.79987308382988 110.90338762104511 111.25604869425297 144.59062907099724
leaf_count=1011 156 2011 219 91 571 538 582
internal_value=0 -0.0294798 0.0440824 -0.0164044 0.060436 0.0137124 -0.06421
internal_weight=0 678.12 435.651 494.887 281.048 154.603 183.233
internal_count=5179 2840 2339 2102 1582 757 738
is_linear=0
shrinkage=0.07


Tree=9
num_leaves=6
num_cat=0
split_feature=327 2083 2083 777 777
split_gain=257.637 52.8854 46.0189 44.0333 38.2907
threshold=0.37954910099506384 1.0000000180025095e-35 1.0000000180025095e-35 9.5000000000000018 15.500000000000002
decision_type=2 2 2 2 2
left_child=1 4 3 -2 -1
right_child=2 -3 -4 -5 -6
leaf_value=-0.0069477140935584039 -0.093402332869587518 0.082041533662251573 0.069300041372799034 -0.029722330351134339 0.037585944847856982
leaf_weight=132.80353045463562 61.436358988285065 95.175922513008118 19.806091532111168 492.76093620061874 303.49244935810566
leaf_count=664 249 586 89 2025 1566
internal_value=0 0.0344751 -0.033135 -0.0369991 0.0238354
internal_weight=0 531.472 574.003 554.197 436.296
internal_count=5179 2816 2363 2274 2230
is_linear=0
shrinkage=0.07


Tree=10
num_leaves=8
num_cat=0
split_feature=329 331 800 777 329 1011 583
split_gain=230.919 53.5692 34.0995 33.7398 17.895 13.6553 11.2849
threshold=0.3252247422933579 1.5730705857276919 3.304999947547913 8.5000000000000018 0.15504807978868487 1.8322097659111025 0.0021019346313551073
decision_type=2 2 2 2 2 2 2
left_child=2 6 4 -3 -1 -4 -2
right_child=1 3 5 -5 -6 -7 -8
leaf_value=0.072899125735225057 -0.044011952913771663 -0.078397159698145744 0.04846803768248955 -0.0078621054897091824 0.032987034006604417 0 -0.085038968020109004
leaf_weight=153.34709097445011 126.80048608779907 35.862257853150368 39.058498919010162 479.40372352302074 103.79328116774559 102.54056644439697 56.982746258378029
leaf_count=984 510 149 206 2038 560 503 229
internal_value=0 -0.024809 0.0419172 -0.0129956 0.0572019 0.013464 -0.0573582
internal_weight=0 699.049 398.739 515.266 257.14 141.599 183.783
internal_count=5179 2926 2253 2187 1544 709 739
is_linear=0
shrinkage=0.07


Tree=11
num_leaves=7
num_cat=0
split_feature=327 326 811 769 800 1017
split_gain=203.319 61.9476 31.522 27.4724 26.3704 18.5701
threshold=0.26754517853260046 0.54137375950813305 13.500000000000002 0.23499999940395358 2.054999947547913 2.7867777347564702
decision_type=2 2 2 2 2 2
left_child=4 3 -3 -2 -1 -6
right_child=1 2 -4 -5 5 -7
leaf_value=0.077135755842815429 -0.075647695283523761 0.030385626086221865 -0.013316001598876206 -0.028824466660774997 0.047531104883115502 0.0028842266142574714
leaf_weight=100.87812921404839 79.487711772322655 122.65172800421715 234.41181746125221 339.6464176774025 137.45393162965775 74.831212237477303
leaf_count=676 323 565 1034 1383 792 406
internal_value=0 -0.0197259 0.00146663 -0.037974 0.0470569 0.0322386
internal_weight=0 776.198 357.064 419.134 313.163 212.285
internal_count=5179 3305 1599 1706 1874 1198
is_linear=0
shrinkage=0.07


Tree=12
num_leaves=8
num_cat=0
split_feature=329 811 777 777 800 777 327
split_gain=187.628 47.668 43.7276 30.1499 19.9192 11.4269 0.922483
threshold=0.27212142944335943 10.500000000000002 9.5000000000000018 8.5000000000000018 2.054999947547913 14.500000000000002 0.1726343631744385
decision_type=2 2 2 2 2 2 2
left_child=4 3 -3 -2 6 -6 -1
right_child=1 2 -4 -5 5 -7 -8
leaf_value=0.079829549934249081 -0.050393986980957081 -0.086001318157379533 -0.019773514966489051 0.036453848911673546 0.0041163131709806046 0.0442433337478981 0.041438736917782888
leaf_weight=80.328765392303467 22.837520033121109 53.961828619241714 612.2923871576786 108.07828445732594 52.32866807281971 145.67780788242817 15.547026693820952
leaf_count=583 96 223 2593 482 291 852 94
internal_value=0 -0.0176694 -0.0253151 0.0205337 0.04773 0.0341089 0.0747037
internal_weight=0 797.17 666.254 130.916 293.882 198.006 95.8758
internal_count=5214 3394 2816 578 1820 1143 677
is_linear=0
shrinkage=0.07


Tree=13
num_leaves=6
num_cat=0
split_feature=329 2083 777 2083 777
split_gain=166.446 54.8777 43.3972 20.3414 15.2939
threshold=0.27212142944335943 1.0000000180025095e-35 9.5000000000000018 1.0000000180025095e-35 11.500000000000002
decision_type=2 2 2 2 2
left_child=3 2 -2 4 -1
right_child=1 -3 -4 -5 -6
leaf_value=-0.019218523166587731 -0.069100262730897782 0.073096673413165031 -0.014359383648265616 0.079591826227575629 0.040638408712160248
leaf_weight=21.10409651696682 80.294996306300163 31.434536904096603 686.46246439218521 69.84403170645237 194.66780699789524
leaf_count=118 332 154 2908 529 1173
internal_value=0 -0.016419 -0.0202376 0.0458148 0.0343548
internal_weight=0 798.192 766.757 285.616 215.772
internal_count=5214 3394 3240 1820 1291
is_linear=0
shrinkage=0.07


Tree=14
num_leaves=6
num_cat=0
split_feature=329 2083 330 2083 777
split_gain=147.308 48.4789 41.9276 19.9344 13.8322
threshold=0.27212142944335943 1.0000000180025095e-35 3.9250000715255742 1.0000000180025095e-35 13.500000000000002
decision_type=2 2 2 2 2
left_child=3 2 -2 4 -1
right_child=1 -3 -4 -5 -6
leaf_value=-0.0026297133267520491 -0.01511932190829 0.070160653400611894 -0.095211944813169927 0.07838008373391199 0.041217755980388314
leaf_weight=39.641680777072906 734.71437481045723 30.507013216614723 33.687664926052094 66.098706439137459 171.87318454682827
leaf_count=223 3103 154 137 529 1068
internal_value=0 -0.015252 -0.0187902 0.043905 0.0325962
internal_weight=0 798.909 768.402 277.614 211.515
internal_count=5214 3394 3240 1820 1291
is_linear=0
shrinkage=0.07


Tree=15
num_leaves=7
num_cat=0
split_feature=329 2083 777 410 0 326
split_gain=130.395 42.8769 37.4514 19.9632 14.1663 5.63702
threshold=0.27212142944335943 1.0000000180025095e-35 9.5000000000000018 14.292857170104982 209.50000000000003 0.76239636540412914
decision_type=2 2 2 2 2 2
left_child=3 2 -2 5 -5 -1
right_child=1 -3 -4 4 -6 -7
leaf_value=0.066742183863286397 -0.062851296068913209 0.067394686801990511 -0.012013038580861984 0.036111630259593894 -0.015278690454605547 0.030593926606725708
leaf_weight=118.37220157682896 80.297460049390793 29.584980204701424 689.31901863217354 74.665970236063004 37.334525242447853 39.581414379179478
leaf_count=887 332 154 2908 463 231 239
internal_value=0 -0.0141781 -0.0174595 0.0420587 0.0182071 0.058333
internal_weight=0 799.201 769.616 269.954 112 157.954
internal_count=5214 3394 3240 1820 694 1126
is_linear=0
shrinkage=0.07


Tree=16
num_leaves=8
num_cat=0
split_feature=329 811 777 777 800 995 329
split_gain=115.445 42.2701 38.7616 29.6123 19.9152 11.5699 1.35464
threshold=0.27212142944335943 13.500000000000002 19.500000000000004 8.5000000000000018 2.054999947547913 2.6619983911514287 0.17937580496072772
decision_type=2 2 2 2 2 2 2
left_child=4 3 -3 -2 6 -6 -1
right_child=1 2 -4 -5 5 -7 -8
leaf_value=0.075852760585617768 -0.048697882819138928 -0.042819613166123115 -0.0048982390686337337 0.019508360786562186 0.040632531099096904 0.0029829076726576014 0.034285125369135618
leaf_weight=66.560474969446659 35.354588210582733 274.84729059040546 265.33892433345318 223.82453720271587 111.5759330317378 70.582734793424606 14.113123685121534
leaf_count=583 147 1150 1110 987 725 418 94
internal_value=0 -0.0131801 -0.0243714 0.00980875 0.0402655 0.0265611 0.0698579
internal_weight=0 799.365 540.186 259.179 262.832 182.159 80.6736
internal_count=5214 3394 2260 1134 1820 1143 677
is_linear=0
shrinkage=0.07


Tree=17
num_leaves=6
num_cat=0
split_feature=327 2083 330 2083 1013
split_gain=107.662 33.6422 31.7187 31.5134 16.0724
threshold=0.35505695641040808 1.0000000180025095e-35 3.9250000715255742 1.0000000180025095e-35 2.4454646110534672
decision_type=2 2 2 2 2
left_child=3 2 -2 4 -1
right_child=1 -3 -4 -5 -6
leaf_value=0.035156449692141579 -0.016776145701301644 0.069213684851433047 -0.087737670408220711 0.072996498639679636 0.0042277281687919397
leaf_weight=164.24757650494576 592.85221070051193 20.295245617628098 33.014737024903297 65.530299283564091 179.61058666557074
leaf_count=1003 2428 102 137 581 963
internal_value=0 -0.0177113 -0.0207105 0.0281508 0.0192784
internal_weight=0 646.162 625.867 409.388 343.858
internal_count=5214 2667 2565 2547 1966
is_linear=0
shrinkage=0.07


Tree=18
num_leaves=7
num_cat=0
split_feature=329 766 2083 800 760 329
split_gain=94.6784 33.4539 33.0682 27.0425 15.2534 4.09619
threshold=0.3252247422933579 0.32500000298023229 1.0000000180025095e-35 2.054999947547913 32.500000000000007 0.27212142944335943
decision_type=2 2 2 2 2 2
left_child=3 -2 -3 5 -5 -1
right_child=1 2 -4 4 -6 -7
leaf_value=0.072202148720061324 -0.084311263844713491 -0.013716789554989967 0.071638286876403737 0.026981205007441732 -0.017390267917658089 0.016322064206372163
leaf_weight=72.939426816999912 31.827961042523384 654.4081359654665 22.37021216750145 204.91772988438606 43.779639899730682 11.981648668646811
leaf_count=669 132 2709 120 1249 255 65
internal_value=0 -0.0141996 -0.0107273 0.0310018 0.0188036 0.0654539
internal_weight=0 708.606 676.778 333.618 248.697 84.9211
